{"labels": ["A", "B", "C", "D", "E", "F", "G", "H", "I", "K", "L", "M", "N", "O", "P", "Q", "R", "S", "T", "U", "V", "W", "X", "Y"], "layers": [{"kernel": [[0.02091151475906372, -0.06606543809175491, -0.015014596283435822, -0.13226673007011414, 0.11030417680740356, 0.009587660431861877, -0.11546725034713745, 0.029821008443832397, -0.11457803100347519, 0.1226087212562561, -0.025328248739242554, 0.07292690873146057, -0.06321106851100922, 0.10795830190181732, 0.13306468725204468, 0.037598609924316406, 0.09411640465259552, 0.04054237902164459, 0.03900577127933502, 0.06276828050613403, -0.09199431538581848, -0.1164747029542923, -0.07367035746574402, -0.04342979937791824, -0.029160156846046448, -0.008802488446235657, 0.08431984484195709, 0.1308140754699707, 0.08224958181381226, -0.0576668381690979, 0.055727824568748474, 0.04780164361000061, -0.10578611493110657, -0.024987109005451202, 0.13493406772613525, 0.07333435118198395, 0.023641332983970642, 0.06415688991546631, 0.03413999080657959, -0.12894226610660553, -0.00017601251602172852, 0.1018749475479126, -0.07206433266401291, -0.060497306287288666, 0.002331063151359558, -0.03154308348894119, -0.07861444354057312, -0.07545425742864609, -0.03284527361392975, -0.0035228729248046875, -0.10691121220588684, 0.1337268352508545, -0.12866120040416718, 0.058123886585235596, 0.011227652430534363, -0.1229516789317131, -0.013195812702178955, 0.08977252244949341, -0.008034244179725647, -0.01151856780052185, 0.04879938066005707, -0.012969471514225006, -0.03823994845151901, -0.03492552042007446, -0.0009879618883132935, -0.06812897324562073, 0.09609310328960419, 0.04508614540100098, 0.022874072194099426, 0.055265799164772034, 0.016408637166023254, -0.07270824909210205, 0.0693674087524414, -0.10762840509414673, -0.09565220028162003, -0.09491473436355591, -0.036423251032829285, -0.0531555712223053, -0.04270942509174347, -0.036443158984184265, -0.03663470596075058, -0.13113753497600555, -0.008563458919525146, -0.11708700656890869, -0.020247869193553925, -0.03582601994276047, -0.02911633998155594, -0.007591649889945984, 0.06152372062206268, 0.02866072952747345, -0.05345279723405838, 0.0803196132183075, -0.10297104716300964, 0.13105428218841553, -0.12791532278060913, 0.013369202613830566, -0.040350958704948425, 0.033436715602874756, -0.00978018343448639, 0.0989760160446167, 0.1312175989151001, 0.03690244257450104, -0.11727364361286163, 0.07440605759620667, 0.04997114837169647, 0.11608490347862244, -0.01540789008140564, -0.12563945353031158, -0.106016144156456, -0.0011721253395080566, 0.005663186311721802, -0.09902443736791611, 0.08377255499362946, 0.09948335587978363, 0.07713907957077026, -0.05257877707481384, 0.12950646877288818, 0.07783283293247223, 0.09727002680301666, 0.039378657937049866, -0.04379680007696152, 0.09253105521202087, 0.006770625710487366, -0.0655941292643547, -0.09703022241592407, 0.11786025762557983, -0.07400940358638763, 0.03959716856479645, 0.04413290321826935, -0.06210365891456604, -0.08216299116611481, -0.09648102521896362, 0.08049699664115906, -0.037706971168518066, -0.10233993828296661, -0.03025338053703308, -0.10320071876049042, -0.05750756710767746, 0.1184835433959961, -0.07191712409257889, -0.10848300158977509, 0.09109799563884735, 0.053685665130615234, 0.10280962288379669, -0.10886026918888092, -0.10514071583747864, 0.03100496530532837, -0.0013417601585388184, 0.03886307775974274, -0.03332642465829849, 0.09413671493530273, -0.019662216305732727, 0.005996152758598328, -0.05107467621564865, -0.11882277578115463, 0.10973893105983734, 0.005972936749458313, 0.0723336935043335, 0.11588278412818909, -0.03619782626628876, 0.027507007122039795, -0.13396257162094116, -0.10279391705989838, -0.013474233448505402, -0.014326468110084534, -0.08471441268920898, 0.13027051091194153, 0.030262887477874756, -0.13280421495437622, 0.010323628783226013, -0.039903849363327026, 0.07323524355888367, -0.1209264025092125, -0.07111883908510208, 0.10467369854450226, -0.03628934919834137, -0.011913523077964783, -0.060725241899490356, -0.004794210195541382, -0.06790142506361008, -0.1075492799282074, 0.12230676412582397, 0.13157740235328674, 0.07243052124977112, -0.06330625712871552, 0.02748638391494751, -0.06045440584421158, -0.04245948791503906, -0.07018855214118958, 0.1282515823841095, 0.04865564405918121, 0.07221497595310211, 0.08157233893871307, 0.05017292499542236, -0.06715051829814911, -0.08380796015262604, -0.02057982236146927, -0.08855174481868744, 0.022342637181282043, 0.1075861006975174, -0.046769894659519196, 0.094723641872406, -0.03334323316812515, 0.13611221313476562, -0.025875642895698547, 0.053722232580184937, 0.12897726893424988, 0.04639190435409546, 0.11550691723823547, -0.12071259319782257, -0.04103195667266846, 0.016132637858390808, -0.011462956666946411, -0.1363883763551712, -0.11421260237693787, 0.11404600739479065, 0.07631970942020416, 0.032591313123703, 0.07586801052093506, -0.12841609120368958, -0.08081590384244919, -0.07199190557003021, 0.0907619297504425, -0.059046365320682526, -0.04923495650291443, 0.07403221726417542, 0.06255874037742615, 0.02161748707294464, 0.1099126935005188, -0.030772127211093903, -0.09274077415466309, -0.09657565504312515, -0.07412688434123993, -0.13200318813323975, 0.13285160064697266, -0.04126518964767456, 0.01277230679988861, 0.06810948252677917, -0.062453821301460266, 0.05978390574455261, -0.033015668392181396, 0.09583057463169098, 0.095319002866745, -0.09702318906784058, -0.04461107403039932, 0.043273866176605225, 0.05506013333797455, -0.12603071331977844, -0.09777982532978058, -0.050726763904094696, -0.03876949101686478, 0.11421510577201843, 0.09038570523262024, 0.11468574404716492, 0.012065187096595764, 0.1088954508304596], [-0.13521350920200348, -0.02772478014230728, 0.08944018185138702, -0.11986511945724487, -0.07814009487628937, 0.004406541585922241, 0.050822317600250244, -0.130573570728302, -0.02469024807214737, -0.050013817846775055, 0.04120555520057678, -0.015605680644512177, -0.12262659519910812, 0.08972978591918945, 0.09976562857627869, 0.10015600919723511, -0.10067564994096756, -0.11851339042186737, -0.03835805505514145, 0.12617763876914978, 0.023838013410568237, -0.0721420869231224, 0.06220106780529022, -0.0710887536406517, -0.08063779771327972, -0.08580047637224197, 0.004918679594993591, 0.018012046813964844, 0.03008626401424408, -0.12062188237905502, -0.0028617531061172485, -0.08833106607198715, 0.049237146973609924, -0.103978730738163, 0.05688333511352539, 0.11118650436401367, -0.12839503586292267, 0.09180444478988647, 0.13553279638290405, 0.05344207584857941, -0.01853436976671219, -0.06621237844228745, 0.11498302221298218, 0.08674970269203186, 0.007774129509925842, 0.12672364711761475, 0.02642160654067993, 0.07838667929172516, 0.01706603169441223, 0.12108772993087769, 0.0818333625793457, 0.011959657073020935, 0.059242263436317444, -0.05138520896434784, 0.06617435812950134, -0.13037338852882385, -0.05555703490972519, 0.10902689397335052, 0.0717618465423584, -0.04131770879030228, 0.10002544522285461, 0.12929421663284302, -0.12754695117473602, -0.020675629377365112, -0.022168941795825958, 0.10549794137477875, 0.088498055934906, 0.07619744539260864, 0.08450746536254883, 0.07353639602661133, 0.03348013758659363, 0.0898408591747284, -0.07236763834953308, -0.03883514553308487, -0.041310444474220276, 0.07271774113178253, -0.07908418774604797, -0.09475588798522949, -0.12724806368350983, -0.12440556287765503, -0.09790655970573425, -0.04490378499031067, -0.04638752341270447, 0.05034463107585907, 0.12057074904441833, 0.08784249424934387, -0.06518013775348663, -0.00900144875049591, -0.09942178428173065, -0.13401666283607483, 0.10918277502059937, -0.10393429547548294, -0.08306421339511871, -0.024033479392528534, 0.1169779896736145, 0.07904678583145142, -0.10547080636024475, 0.01996290683746338, 0.007581934332847595, -0.05518607795238495, 0.11221243441104889, -0.06758984923362732, 0.014685660600662231, 0.010985463857650757, -0.04207387566566467, 0.12263277173042297, 0.0991487205028534, -0.022741742432117462, 0.0499110221862793, 0.11376544833183289, -0.13275831937789917, -0.004458069801330566, -0.02183159440755844, -0.13592782616615295, 0.11200737953186035, 0.043829500675201416, -0.0735999271273613, -0.02576564997434616, 0.0009077638387680054, 0.10515725612640381, -0.06347092241048813, 0.12438437342643738, -0.13475622236728668, -0.0029254555702209473, -0.11769571155309677, 0.04013662040233612, 0.12035059928894043, 0.04453210532665253, -0.014047756791114807, 0.02506260573863983, -0.10742342472076416, -0.07981482148170471, -0.01509905606508255, 0.051104530692100525, -0.11170453578233719, 0.12386593222618103, 0.07387223839759827, 0.02753862738609314, 0.09130929410457611, -0.09751667082309723, -0.07885739207267761, -0.04184044897556305, -0.002259984612464905, -0.13160796463489532, 0.07557304203510284, -0.0990138053894043, -0.03847144544124603, 0.09698222577571869, -0.102360799908638, -0.049482837319374084, -0.0893840342760086, 0.004655927419662476, -0.03342851251363754, -0.0029479116201400757, -0.052149489521980286, -0.11280854791402817, -0.10075592249631882, 0.10268035531044006, 0.020731016993522644, 0.051948100328445435, 0.07109522819519043, 0.04089096188545227, 0.06621323525905609, -0.001201033592224121, -0.010349392890930176, 0.09296253323554993, 0.1010994166135788, -0.02703528106212616, 0.07124590873718262, -0.04988813400268555, 0.06500023603439331, 0.03415133059024811, -0.06271170824766159, 0.06903411448001862, -0.05837389826774597, -0.11846071481704712, 0.1294078528881073, -0.001964360475540161, 0.10003627836704254, -0.11154009401798248, 0.057810574769973755, -0.0532996729016304, 0.012987524271011353, -0.02787639945745468, 0.05989415943622589, 0.05849704146385193, 0.11316177248954773, 0.01529531180858612, -0.1332547664642334, -0.057714320719242096, 0.11542454361915588, -0.032613612711429596, 0.006086364388465881, -0.08403508365154266, 0.10050129890441895, -0.05114948749542236, 0.07187519967556, 0.10018044710159302, -0.08838550746440887, 0.12699180841445923, 0.13195443153381348, 0.03334248065948486, 0.08494417369365692, 0.06824818253517151, -0.05464829504489899, -0.010631248354911804, -0.028361313045024872, -0.04882155358791351, 0.11816924810409546, 0.0016140639781951904, -0.07697984576225281, -0.03358186036348343, 0.0502389520406723, 0.0029177069664001465, -0.04304664582014084, -0.1287364959716797, -0.02685573697090149, -0.08186249434947968, -0.0631926953792572, -0.10654604434967041, -0.03412327915430069, -0.09669725596904755, -0.10586265474557877, 0.0708804726600647, 0.07679222524166107, -0.11911284178495407, -0.0666312724351883, -0.07916589826345444, -0.04863354563713074, 0.08128802478313446, -0.028455808758735657, -0.11342497169971466, -0.10039657354354858, -0.04974527657032013, 0.07884019613265991, 0.09591807425022125, -0.09555914252996445, 0.08105610311031342, -0.11272349953651428, -0.02507820725440979, -0.0595259815454483, 0.07633137702941895, 0.02194872498512268, 0.11136025190353394, 0.010497838258743286, -0.10420284420251846, -0.0415053591132164, -0.024694792926311493, -0.017453640699386597, 0.023364052176475525, 0.0740506649017334, 0.06418399512767792, 0.10258570313453674, 0.06421110033988953, -0.053076379001140594, -0.04907120764255524], [0.07502520084381104, -0.10980236530303955, -0.12483108788728714, 0.010109871625900269, -0.07287896424531937, -0.06344770640134811, 0.10005730390548706, 0.09848524630069733, -0.12019648402929306, 0.08107058703899384, -0.08389195799827576, 0.029804110527038574, -0.06779715418815613, 0.022153571248054504, -0.0015818029642105103, 0.06375166773796082, -0.0074562132358551025, 0.11078262329101562, -0.06711971759796143, -0.1307733803987503, -0.003365039825439453, -0.03578799217939377, -0.06604097783565521, -0.00947628915309906, -0.045235998928546906, -0.06200052797794342, -0.0020008832216262817, 0.08786264061927795, 0.011456772685050964, -0.009383559226989746, 0.08700284361839294, 0.000660434365272522, -0.03218317776918411, -0.05763678997755051, 0.0367293655872345, 0.04495394229888916, -0.10245957970619202, -0.12421718239784241, -0.08212153613567352, 0.1151323914527893, 0.027145177125930786, -0.1325083076953888, 0.006204202771186829, 0.11865508556365967, 0.07758747041225433, 0.1347007155418396, 0.11910450458526611, 0.11159706115722656, 0.11914417147636414, -0.052704110741615295, 0.11350315809249878, 0.0820675790309906, -0.12209639698266983, 0.07690395414829254, 0.12200003862380981, -0.01972121000289917, -0.09052104502916336, 0.0726693719625473, 0.0086250901222229, -0.08738962560892105, -0.07188387215137482, -0.10734854638576508, 0.11417794227600098, 0.10970652103424072, 0.00203917920589447, -0.0397326722741127, -0.011882588267326355, -0.05729538947343826, 0.048386216163635254, -0.04543221741914749, 0.004790380597114563, -0.0745663121342659, 0.022487252950668335, -0.055776603519916534, 0.04047262668609619, 0.08331523835659027, 0.05331967771053314, 0.08062003552913666, 0.08616986870765686, 0.017472803592681885, 0.09984926879405975, -0.08320063352584839, -0.05612346529960632, 0.011282190680503845, 0.005780771374702454, -0.056344859302043915, -0.10945884138345718, 0.027585327625274658, 0.05438455939292908, 0.053423523902893066, 0.05303017795085907, 0.03783458471298218, 0.02671271562576294, -0.13234327733516693, 0.12533703446388245, -0.05068366974592209, -0.0925678014755249, -0.10635051131248474, 0.07567183673381805, 0.0991000384092331, 0.03520800173282623, -0.03792153298854828, -0.0651952475309372, -0.05431598424911499, -0.06317506730556488, -0.08243033289909363, -0.11111365258693695, -0.0053221434354782104, 0.0146188884973526, 0.014265522360801697, 0.04989221692085266, -0.0024256259202957153, -0.022695735096931458, 0.04515144228935242, -0.03054150938987732, -0.00634591281414032, 0.04401087760925293, -0.08339600265026093, 0.11731842160224915, 0.02975548803806305, 0.09911209344863892, 0.022137939929962158, 0.09342773258686066, -0.0914139598608017, -0.0028274953365325928, 0.07205873727798462, -0.08901461958885193, -0.0453878790140152, -0.12922945618629456, -0.09978747367858887, 0.0363275408744812, 0.11451977491378784, -0.09334579110145569, -0.06622768193483353, 0.014161154627799988, -0.010777309536933899, -0.05419716238975525, 0.11221131682395935, -0.02936902642250061, -0.04678277671337128, 0.027874082326889038, 0.07326830923557281, -0.1001046746969223, 0.12975281476974487, 0.13388246297836304, 0.06126956641674042, -0.12246009707450867, -0.030264854431152344, -0.05253758281469345, 0.02584536373615265, 0.022904381155967712, -0.04621516913175583, -0.03929131478071213, -0.13360126316547394, 0.05002516508102417, 0.07363903522491455, 0.13334956765174866, 0.11989474296569824, 0.029814377427101135, -0.06805016845464706, 0.11688029766082764, 0.0618184357881546, 0.11728966236114502, 0.07434377074241638, -0.0845959484577179, -0.013756543397903442, -0.06871877610683441, 0.047552838921546936, -0.12727290391921997, -0.014993347227573395, -0.009499505162239075, 0.10813774168491364, -0.0482080802321434, -0.10126477479934692, -0.08238877356052399, 0.07123351097106934, 0.009662896394729614, 0.08718058466911316, -0.0014175176620483398, 0.05750724673271179, 0.02213476598262787, -0.08784641325473785, 0.05890122056007385, 0.014465764164924622, -0.12164314091205597, 0.11885610222816467, -0.11409690976142883, 0.05998809635639191, 0.024898499250411987, -0.09196622669696808, -0.0517665296792984, 0.0496496707201004, 0.02423970401287079, -0.0629657730460167, -0.03616134077310562, -0.026921913027763367, 0.09786286950111389, -0.018646687269210815, 0.009529098868370056, 0.009686857461929321, 0.06508488953113556, 0.08836902678012848, -0.1115458533167839, -0.002386033535003662, 0.08391040563583374, -0.02321648597717285, 0.07933667302131653, -0.06395874172449112, 0.051371052861213684, -0.12334117293357849, 0.05581267178058624, 0.05157776176929474, 0.05172693729400635, -0.0007814764976501465, 0.10509239137172699, -0.10452312231063843, -0.0732010081410408, 0.00012925267219543457, -0.02457544207572937, -0.00965854525566101, -0.00021485984325408936, 0.04060612618923187, 0.11656036972999573, -0.07120604068040848, -0.053103089332580566, -0.10649529099464417, -0.0761265903711319, -0.09308455884456635, -0.13607963919639587, 0.022244244813919067, -0.08421334624290466, -0.09473446756601334, 0.08581110835075378, -0.035876572132110596, -0.12076941877603531, 0.06126105785369873, 0.11716851592063904, -0.12153163552284241, 0.09852428734302521, 0.10714565217494965, -0.028688162565231323, -0.10400620102882385, -0.07101001590490341, -0.10815167427062988, 0.10410429537296295, -0.06583324819803238, 0.07639177143573761, -0.0683523640036583, 0.028868257999420166, -0.07163314521312714, 0.13299578428268433, 0.09334267675876617, 0.06288105249404907, 0.07743209600448608, 0.10113391280174255, 0.08394090831279755], [0.07537467032670975, -0.027972400188446045, 0.12727481126785278, -0.16073009371757507, -0.1093033105134964, -0.023247020319104195, -0.030156772583723068, -0.19146962463855743, 0.03136081248521805, -0.003978651948273182, -0.13323138654232025, -0.24327950179576874, -0.06114353612065315, 0.07027710974216461, -0.1388111114501953, 0.17087043821811676, 0.041884373873472214, -0.27377524971961975, 0.16409660875797272, -0.08404234051704407, -0.06453750282526016, -0.016931066289544106, -0.048780858516693115, -0.023427383974194527, -0.03144901245832443, 0.052748631685972214, -0.05774517357349396, -0.13904786109924316, 0.09907440096139908, -0.050569359213113785, 0.052334416657686234, 0.15686462819576263, 0.06518599390983582, 0.24482570588588715, 0.058781228959560394, -0.14672091603279114, -0.1161830946803093, -0.030928298830986023, 0.06753512471914291, -0.128899946808815, 0.22689750790596008, 0.14098241925239563, -0.08551980555057526, 0.010356497019529343, 0.05653555318713188, 0.02967142127454281, -0.1627514809370041, -0.10131631791591644, 0.18730947375297546, -0.0968012586236, -0.0967923030257225, -0.10845200717449188, -0.06952422857284546, 0.16538062691688538, 0.08680563420057297, 0.10123465210199356, 0.07939166575670242, -0.08867362886667252, 0.04453331604599953, 0.08513923734426498, 0.02124699205160141, -0.2073366492986679, 0.17771433293819427, 0.1297549307346344, 0.006043034140020609, 0.0352754145860672, 0.07533036172389984, 0.1322414129972458, -0.04455394297838211, -0.03776206076145172, 0.07360418885946274, -0.032634127885103226, 0.08333238214254379, 0.002771446481347084, -0.1630055457353592, -0.0072252461686730385, -0.06836603581905365, -0.006492913234978914, -0.1347147673368454, 0.0673418790102005, 0.0006357845850288868, -0.08437136560678482, -0.02530679851770401, 0.060305286198854446, 0.0026503121480345726, 0.03858295455574989, 0.1206953227519989, 0.11878608167171478, 0.02562999725341797, 0.02421337552368641, 0.12956814467906952, 0.13768824934959412, -0.08693432062864304, 0.11053109169006348, 0.13072918355464935, -0.003629553597420454, -0.3891642391681671, -0.20193026959896088, 0.12223197519779205, -0.10814005136489868, -0.09594449400901794, 0.03830471634864807, -0.23894473910331726, -0.10531528294086456, -0.06002224236726761, 0.040740966796875, 0.11531908065080643, -0.1670602560043335, 0.07690146565437317, 0.1313382089138031, 0.08146985620260239, -0.09756495803594589, 0.12667369842529297, -0.1456434577703476, -0.04434589669108391, 0.015967970713973045, -0.02351849153637886, 0.09115254878997803, 0.05499010905623436, -0.2955496311187744, 0.06334267556667328, 0.16685906052589417, 0.0268864668905735, 0.15137973427772522, 0.05216780677437782, -0.02790214493870735, 0.09268718957901001, 0.008233879692852497, 0.10661490261554718, -0.08337891101837158, 0.013545313850045204, -0.028239570558071136, 0.0712510496377945, -0.14079207181930542, -0.00886485818773508, 0.15925034880638123, 0.18957290053367615, 0.17682352662086487, -0.1146189495921135, -0.03322220593690872, -0.08995036780834198, 0.017645318061113358, -0.14328090846538544, -0.11000673472881317, -0.14023755490779877, 0.10306282341480255, 0.14734147489070892, 0.25218045711517334, 0.20916308462619781, 0.19061151146888733, 0.04397079721093178, 0.07483754307031631, 0.2170625478029251, -0.02198004722595215, 0.020331449806690216, -0.1316300928592682, -0.06108887121081352, -0.04567822813987732, 0.1445910930633545, -0.16839639842510223, -0.07865680009126663, 0.12255344539880753, -0.03875041380524635, -0.08551203459501266, -0.0019005388021469116, -0.06303590536117554, 0.010292704217135906, 0.1296689659357071, 0.13431720435619354, 0.03840595856308937, 0.044778503477573395, -0.09833178669214249, 0.1049768254160881, -0.13763344287872314, 0.12892462313175201, -0.14843982458114624, -0.013124857097864151, -0.08450640738010406, -0.09067845344543457, 0.06328432261943817, -0.052420731633901596, -0.1333087533712387, -0.011664091609418392, -0.004700495861470699, -0.0004272498772479594, 0.04342540726065636, -0.006983881816267967, -0.1984758824110031, 0.08792267739772797, -0.03301304951310158, 0.1624382585287094, -0.18265391886234283, -0.06528632342815399, 0.2087193876504898, 0.007909967564046383, -0.291485995054245, -0.09021338820457458, -0.014910784550011158, -0.07129009068012238, 0.07803477346897125, -0.116216741502285, -0.07758825272321701, -0.12654612958431244, -0.06960134208202362, 0.0716005489230156, 0.17885752022266388, 0.03592155501246452, 0.07134503126144409, -0.06593284755945206, -0.08304621279239655, 0.02827131189405918, 0.0039840517565608025, -0.08036527037620544, 0.08593138307332993, 0.2082270234823227, -0.01618308201432228, 0.04001447558403015, 0.14380450546741486, 0.07553650438785553, 0.16689403355121613, 0.02876763790845871, 0.015328752808272839, 0.03238843008875847, -0.06054074317216873, 0.06772393733263016, 0.0817200317978859, -0.12950749695301056, 0.15041902661323547, 0.05182648450136185, -0.04666389152407646, -0.05257633700966835, 0.021403010934591293, -0.1867007464170456, -0.0323357991874218, 0.08381948620080948, -0.10557150840759277, 0.18355455994606018, -0.09398999810218811, 0.07682503014802933, -0.03915822505950928, -0.0749441608786583, -0.1438884437084198, 0.08763515204191208, 0.11144180595874786, -0.11708647757768631, -0.11871127039194107, 0.043952129781246185, -0.05285700783133507, 0.12433912605047226, -0.059786781668663025, -0.08322937786579132, 0.28205111622810364, 0.04725668206810951, -0.08793174475431442, 0.18179962038993835, -0.06304695457220078], [0.1759014129638672, 0.11830227822065353, 0.03270893916487694, -0.31724977493286133, -0.053083714097738266, -0.15576593577861786, -0.1642775982618332, -0.08914752304553986, 0.10769188404083252, 0.006148593965917826, -0.06269706785678864, -0.310782253742218, 0.1040409505367279, 0.05501989647746086, -0.04632197692990303, -0.018941516056656837, -0.02621333673596382, 0.03490832820534706, 0.026068633422255516, -0.25249671936035156, 0.14074912667274475, 0.12859316170215607, 0.06995151937007904, 0.13358411192893982, 0.07213712483644485, 0.03758198395371437, 0.0247142743319273, -0.01709374412894249, -0.10967147350311279, -0.17948803305625916, -0.06252114474773407, 0.11379068344831467, 0.20441551506519318, -0.008283894509077072, 0.03422166779637337, -0.09115301072597504, -0.3229421377182007, 0.14171704649925232, 0.033653657883405685, 0.19053906202316284, -0.06490186601877213, -0.1058349534869194, 0.18364766240119934, -0.06114692986011505, -0.21592698991298676, -0.04308387264609337, 0.20899809896945953, 0.11533483862876892, 0.04305538535118103, -0.16267181932926178, -0.11625257879495621, 0.08796696364879608, 0.2170422226190567, -0.08693096041679382, -0.21169859170913696, -0.09749888628721237, 0.21417899429798126, -0.15006284415721893, -0.0038605269510298967, 0.06776455044746399, 0.24655820429325104, -0.3293602466583252, 0.08790010213851929, 0.24063856899738312, -0.0013952733715996146, 0.06575766205787659, 0.0636998638510704, 0.033094167709350586, 0.008442018181085587, -0.231951043009758, -0.1090514063835144, -0.08087894320487976, 0.1034260168671608, -0.04893858730792999, -0.010305874980986118, 0.14931416511535645, 0.04597323015332222, 0.019139312207698822, 0.056646112352609634, 0.3752613961696625, -0.17474114894866943, -0.20464253425598145, -0.17074429988861084, 0.011167589575052261, -0.17844294011592865, 0.06322643905878067, -0.21247705817222595, -0.046304844319820404, 0.1179635226726532, -0.19876313209533691, 0.09305030107498169, -0.18769177794456482, -0.12346859276294708, 0.1561402976512909, -0.08751710504293442, -0.043983981013298035, 0.11035487800836563, -0.029728161171078682, 0.018791206181049347, 0.18292583525180817, 0.09317127615213394, -0.21200497448444366, -0.13023608922958374, 0.11873085796833038, 0.07325553894042969, -0.09019549936056137, 0.04923722892999649, -0.19459109008312225, -0.21788886189460754, 0.23742009699344635, 0.23494340479373932, -0.27680113911628723, 0.24834924936294556, 0.05630192905664444, 0.010835202410817146, 0.08634715527296066, 0.06816836446523666, 0.21507419645786285, 0.00413169851526618, 0.008220137096941471, 0.15422415733337402, -0.15276683866977692, -0.09786782413721085, -0.06378203630447388, 0.19493575394153595, -0.09725704789161682, 0.025130247697234154, -0.0030939674470573664, -0.06647725403308868, -0.027398256585001945, -0.019452430307865143, -0.1357947587966919, -0.18472355604171753, 0.09059689939022064, 0.14091922342777252, -0.06317274272441864, -0.08753994852304459, 0.02371547557413578, 0.03773810714483261, -0.15211136639118195, -0.2664864659309387, 0.0597369447350502, -0.13478738069534302, 0.2762303352355957, 0.13677145540714264, -0.029735799878835678, 0.23812741041183472, -0.15458349883556366, -0.11575999855995178, 0.09732756018638611, -0.0020939845126122236, 0.11007509380578995, -0.09442194551229477, -0.03447785601019859, -0.03568807616829872, 0.19625015556812286, 0.1647452414035797, 0.0021438077092170715, -0.12264518439769745, -0.19409966468811035, 0.2779710292816162, -0.1284901350736618, -0.11116743087768555, -0.03440654277801514, 0.11413603276014328, 0.10663972795009613, -0.1023559421300888, 0.07734449952840805, -0.008098067715764046, 0.11082246154546738, 0.09849188476800919, -0.02907184325158596, -0.0573902353644371, -0.11102273315191269, 0.01479638647288084, -0.10242436826229095, -0.150774747133255, 0.08440311253070831, -0.0020526982843875885, 0.12478119879961014, 0.04263995215296745, -0.020081957802176476, -0.02285430021584034, 0.007535590324550867, -0.1013513132929802, -0.022266894578933716, -0.22773750126361847, 0.1772584766149521, -0.06951875239610672, 0.013873545452952385, 0.14768987894058228, 8.597297710366547e-05, -0.1786760538816452, -0.1722736358642578, 0.09763288497924805, 0.015262371860444546, 0.07248736172914505, 0.003605828620493412, -0.04433916136622429, -0.24250252544879913, 0.07130890339612961, -0.024182153865695, -0.03767337277531624, 0.16351036727428436, 0.10265866667032242, 0.04296007379889488, -0.17934010922908783, 0.18819178640842438, 0.043784432113170624, -0.11371151357889175, 0.19866622984409332, 0.12341224402189255, -0.18017180263996124, 0.08745265007019043, 0.07061909139156342, -0.0935065820813179, 0.2627791464328766, 0.15101473033428192, 0.09474460780620575, 0.17562910914421082, 0.14304718375205994, -0.03675594925880432, -0.09631314128637314, 0.042689088732004166, 0.14166498184204102, 0.032968830317258835, 0.03100721351802349, 0.011800320819020271, -0.13801328837871552, -0.21933038532733917, -0.14193317294120789, 0.06359715014696121, -0.0668688490986824, 0.07691370695829391, 0.07615340501070023, -0.07117880880832672, -0.15168774127960205, 0.0708278939127922, -0.12729743123054504, 0.10608824342489243, 0.16364887356758118, 0.14041347801685333, 0.0025123239029198885, 0.23115718364715576, 0.1465097814798355, 0.33705809712409973, -0.09380938857793808, -0.20701049268245697, -0.1287752389907837, 0.0683484822511673, 0.12556259334087372, -0.028388209640979767, -0.22225628793239594, 0.1025572121143341, 0.05756039544939995, 0.02880464866757393], [0.07806739211082458, -0.1378890872001648, 0.03282404690980911, 0.008470825850963593, -0.09598398953676224, -0.09457054734230042, 0.018096117302775383, 0.13008342683315277, 0.08341939002275467, -0.03932126238942146, 0.23154093325138092, 0.22724567353725433, -0.1273941993713379, -0.07184534519910812, 0.22487908601760864, -0.18983519077301025, -0.01494141947478056, 0.18542368710041046, -0.009055400267243385, -0.17285121977329254, 0.0052415295504033566, -0.008147075772285461, 0.17948025465011597, -0.05891610309481621, -0.09437152743339539, 0.16684569418430328, 0.20576195418834686, -0.0614820271730423, 0.08372122049331665, 0.13633450865745544, 0.33989986777305603, -0.027981499210000038, 0.03209367394447327, 0.23410215973854065, 0.0528368316590786, 0.05934968218207359, 0.2167970985174179, -0.14274577796459198, 0.02962033636868, -0.20935732126235962, -0.20828409492969513, 0.035520151257514954, 0.08802086114883423, 0.05067596957087517, -0.05886564031243324, -0.21174965798854828, 0.3124121129512787, -0.1888955980539322, 0.22544904053211212, -0.05825774744153023, 0.03865894675254822, 0.2798425257205963, -0.054839786142110825, 0.011630057357251644, 0.013773953542113304, -0.007190561853349209, -0.019888734444975853, -0.07765569537878036, -0.05429325997829437, 0.1089688390493393, 0.05784925818443298, -0.051393069326877594, 0.030260033905506134, -0.1230982318520546, -0.16521024703979492, -0.11950407177209854, 0.05266027897596359, -0.3205316364765167, 0.05944913998246193, 0.021654486656188965, 0.06260368227958679, 0.20006532967090607, -0.24210600554943085, 0.13518522679805756, 0.03652026876807213, 0.1453256905078888, -0.16033536195755005, -0.0038290482480078936, 0.3025616705417633, -0.025071052834391594, -0.09756746143102646, 0.16706769168376923, -0.06704695522785187, 0.029492009431123734, 0.02379777282476425, -0.1340510994195938, -0.15576787292957306, -0.1517421454191208, 0.027475981041789055, -0.012715638615190983, -0.13237670063972473, -0.23834510147571564, -0.017075521871447563, -0.15290042757987976, 0.17454002797603607, 0.05027754232287407, 0.027779588475823402, 0.19423338770866394, -0.12536704540252686, 0.11262369900941849, 0.0864272341132164, 0.011906333267688751, 0.024077149108052254, -0.09115587919950485, 0.07002131640911102, -0.027944380417466164, 0.10360044986009598, -0.0334269255399704, -0.0782332718372345, 0.2834877073764801, -0.27936190366744995, 0.03879237547516823, 0.10129088163375854, 0.0988602340221405, 0.08649037778377533, -0.02796684019267559, 0.03471167013049126, -0.26936426758766174, -0.12245593219995499, 0.1545114368200302, -0.03760015591979027, -0.017609918490052223, -0.0032152559142559767, -0.005691799335181713, -0.07650863379240036, -0.09914766252040863, 0.06905563175678253, -0.15492765605449677, 0.12293770909309387, 0.019866997376084328, -0.2377188503742218, -0.07201144844293594, 0.09758055955171585, -0.11407038569450378, -0.06358581781387329, -0.05965933948755264, 0.20596300065517426, 0.20197907090187073, -0.043758317828178406, 0.25967177748680115, -0.004778572823852301, 0.09896355867385864, 0.11439763009548187, 0.29298803210258484, 0.22619152069091797, 0.004911933094263077, 0.14984221756458282, 0.337207555770874, 0.1372242420911789, 0.18272994458675385, 0.02336116135120392, 0.056276723742485046, 0.1711779534816742, 0.291469931602478, 0.163747638463974, -0.18062031269073486, -0.26675981283187866, 0.012959282845258713, 0.2225993126630783, 0.048519641160964966, 0.11347149312496185, -0.08183791488409042, 0.11723491549491882, -0.08192264288663864, -0.10314106196165085, 0.26809489727020264, 0.15033762156963348, -0.044450655579566956, 0.201626256108284, 0.13335269689559937, 0.19366540014743805, -0.11743327230215073, 0.17857718467712402, -0.13498248159885406, -0.20033550262451172, 0.06767039746046066, 0.2728045880794525, 0.03861990198493004, -0.09522265940904617, 0.1732492744922638, -0.17191334068775177, -0.0640898123383522, -0.2853909432888031, -0.12190132588148117, 0.062056560069322586, 0.20687662065029144, 0.13709333539009094, -0.17147120833396912, 0.1392616331577301, 0.17331883311271667, -0.04016203060746193, -0.05139722675085068, -0.0872197151184082, 0.18460112810134888, -0.04448438063263893, 0.05174269154667854, 0.09623371064662933, -0.1271394044160843, 0.08599171042442322, -0.15217015147209167, -0.08305687457323074, -0.031159227713942528, 0.010022413916885853, 0.08989869803190231, -0.03137800842523575, 0.15989859402179718, 0.036190807819366455, 0.05485640838742256, 0.01773236133158207, -0.0020803422667086124, 0.06390361487865448, -0.2251349240541458, -0.02841969020664692, 0.04681742563843727, -0.17216354608535767, 0.04944509640336037, 0.3023609519004822, 0.20766352117061615, -0.20258525013923645, -0.01342067401856184, 0.02332070842385292, -0.19532665610313416, 0.1359531432390213, 0.012474591843783855, 0.07210524380207062, 0.06306155025959015, 0.11474567651748657, 0.02239813283085823, -0.06955765187740326, -0.046920254826545715, 0.1442728340625763, -0.032218366861343384, -0.04986420273780823, -0.03318772837519646, 0.21337033808231354, -0.01000571995973587, -0.06469643115997314, 0.187387615442276, 0.004206578712910414, 0.09818340092897415, -0.09772592037916183, 0.11671529710292816, 0.2511487603187561, 0.21199627220630646, -0.03560393303632736, -0.09581677615642548, -0.032872315496206284, 0.06673799455165863, 0.07577420771121979, -0.12012246996164322, -0.19762133061885834, -0.13248996436595917, 0.24683748185634613, 0.06521071493625641, 0.1111614853143692, -0.0629025250673294], [-0.09444814920425415, -0.0034255203790962696, -0.09401845932006836, -0.17271843552589417, -0.10961870104074478, 0.09388179332017899, 0.12540970742702484, -0.09709614515304565, 0.06887128204107285, 0.031307511031627655, 0.10643686354160309, 0.02594791352748871, -0.06409716606140137, 0.03866704925894737, -0.03017335943877697, -0.031237728893756866, 0.07365868240594864, -0.27108049392700195, 0.04541133716702461, -0.03854100778698921, -0.06928226351737976, 0.07415854930877686, -0.11703179031610489, -0.17798170447349548, -0.15545670688152313, 0.10646694898605347, 0.07296890020370483, -0.11985214799642563, 0.1942533552646637, -0.1522151380777359, -0.1266527771949768, 0.039899133145809174, 0.058583103120326996, 0.09395736455917358, 0.11938555538654327, -0.09891024976968765, -0.0450299009680748, -0.040603309869766235, 0.05093004181981087, -0.12001395225524902, -0.04594845697283745, -0.09255062788724899, -0.02017158828675747, 0.0406414158642292, -0.03716294467449188, 0.08580105751752853, -0.20300544798374176, 0.01892472244799137, 0.0355786494910717, 0.026048816740512848, -0.16912756860256195, -0.07100903987884521, -0.05324443057179451, 0.16600200533866882, 0.09063857048749924, 0.0451270155608654, 0.09680555760860443, -0.1225692629814148, 0.06691669672727585, -0.10470802336931229, -0.001670667203143239, 0.002047512214630842, 0.044394005089998245, 0.08939295262098312, -0.025029975920915604, 0.05433839187026024, 0.006904961075633764, -0.016451356932520866, -0.05648394674062729, -0.06439664959907532, -0.0987967774271965, -0.07203275710344315, -0.04239257797598839, -0.007634327281266451, -0.0943954661488533, 0.05891162157058716, 0.1063794195652008, -0.07173186540603638, 0.04759186878800392, 0.16595004498958588, 0.055475667119026184, 0.10215596109628677, -0.10433020442724228, -0.025280306115746498, -0.0003270668094046414, -0.10283178091049194, -0.0139702707529068, -0.03163949027657509, -0.11419279873371124, -0.11512266099452972, 0.16089628636837006, 0.006167392246425152, -0.12432758510112762, -0.09442126005887985, 0.04420732706785202, -0.17287717759609222, -0.3314473628997803, 0.02474205009639263, 0.0914979800581932, -0.08527533710002899, 0.08489891141653061, -0.016478637233376503, -0.10979336500167847, 0.004764856304973364, -0.04314248636364937, -0.06360448896884918, -0.012175092473626137, -0.03651060909032822, -0.005867451895028353, 0.07531969994306564, -0.1647164523601532, -0.05813620612025261, 0.13041050732135773, 0.06795091927051544, 0.10047823935747147, 0.08898835629224777, -0.12362978607416153, 0.06625059992074966, 0.026796193793416023, -0.17994607985019684, 0.015037013217806816, -0.03866168111562729, -0.13644208014011383, 0.1846957802772522, 0.10300770401954651, -0.06315537542104721, 0.15418832004070282, -0.15950782597064972, 0.05662252753973007, -0.0021924551110714674, -0.07633882761001587, 0.03600802272558212, -0.10952027142047882, -0.1696452796459198, 0.02813650108873844, -0.03099188581109047, 0.3098408281803131, 0.1669987142086029, -0.19599755108356476, -0.06975848227739334, -0.12143852561712265, 0.0949508473277092, -0.0494716577231884, -0.04831956699490547, 0.05753335356712341, -0.05017564818263054, 0.06873486936092377, 0.15342071652412415, 0.1468973308801651, 0.06387495994567871, -0.11740460246801376, 0.05931638553738594, 0.021431148052215576, 0.12296434491872787, 0.14330948889255524, -0.06238531321287155, -0.07595288008451462, -0.008757862262427807, 0.14859572052955627, 0.059248991310596466, 0.10827140510082245, 0.14593282341957092, 0.05190461874008179, 0.05081038549542427, 0.12245786935091019, 0.05122434347867966, -0.0029280371963977814, -0.037671126425266266, -0.021304959431290627, -0.09328920394182205, -0.019339805468916893, 0.05296079069375992, 0.07016240805387497, -0.05364520102739334, 0.12169749289751053, 0.06659993529319763, -0.013446863740682602, -0.04497772082686424, -0.07792219519615173, 0.15268172323703766, -0.1268758773803711, -0.1814093291759491, -0.1706034243106842, -0.02703394927084446, -0.042452141642570496, 0.12000066787004471, -0.0029951862525194883, -0.14913517236709595, 0.10665740072727203, 0.025871489197015762, -0.06527528166770935, -0.24416393041610718, 0.11827157437801361, 0.10348940640687943, -0.10276053845882416, -0.2612568140029907, 0.09589706361293793, 0.03243744373321533, -0.22198419272899628, -0.1477363407611847, -0.010027210228145123, -0.23531265556812286, 0.12375041842460632, 0.12332218885421753, 0.20421886444091797, 0.02574700303375721, -0.07599466294050217, -0.1271987110376358, -0.13094593584537506, -0.06788498163223267, -0.030608056113123894, -0.004146816674619913, 0.11735306680202484, 0.025716200470924377, 0.03425304591655731, -0.10603412240743637, 0.10357644408941269, 0.03392402455210686, 0.10034424811601639, 0.053496524691581726, 0.02095462754368782, 0.2355181723833084, -0.06240193545818329, 0.053886353969573975, -0.06871932744979858, 0.083460234105587, 0.14550253748893738, -0.04486320540308952, -0.11211653053760529, 0.005013823509216309, -0.07549027353525162, -0.07042963057756424, 0.048308856785297394, -0.11984002590179443, 0.08969546854496002, -0.18251413106918335, 0.08933211117982864, 0.008422551676630974, 0.08493567258119583, -0.05587082356214523, -0.043236494064331055, 0.06060737743973732, 0.06278151273727417, -0.03251425921916962, 0.1284177303314209, 0.04750019311904907, -0.04903675243258476, -0.11349102854728699, 0.1196635365486145, -0.002484176540747285, -0.15142053365707397, 0.21788597106933594, 0.15985754132270813, -0.06981554627418518, -0.11950366944074631, 0.11787719279527664], [-0.046169087290763855, 0.06763896346092224, 0.014011450111865997, -0.05633414164185524, 0.22887030243873596, 0.09515085071325302, -0.12572908401489258, 0.003633396700024605, 0.046868570148944855, 0.03682230785489082, -0.0987231507897377, -0.2125922441482544, 0.13109096884727478, -0.0031390590593218803, -0.14499318599700928, 0.21429234743118286, 0.07426425069570541, 0.1536189615726471, -0.02602878026664257, -0.060126736760139465, 0.12530867755413055, -0.007182859815657139, -0.08425360172986984, 0.010383625514805317, 0.1415116935968399, -0.16258752346038818, -0.07842529565095901, -0.010726199485361576, 0.0862746313214302, -0.02626729942858219, -0.1669682264328003, 0.07606283575296402, 0.12138278782367706, -0.1701505035161972, 0.08609002083539963, 0.0008576386026106775, -0.01075944397598505, 0.03949321433901787, -0.03421113267540932, 0.19542880356311798, 0.061667509377002716, 0.08720610290765762, -0.03483446314930916, 0.12970829010009766, -0.20751380920410156, 0.020519856363534927, 0.10546467453241348, 0.07904831320047379, 0.0911765918135643, 0.012270132079720497, -0.1809968799352646, 0.11357264965772629, 0.18246926367282867, -0.08418868482112885, -0.10772722959518433, -0.020461278036236763, 0.20044702291488647, -0.10816184431314468, 0.13192041218280792, -0.033287279307842255, 0.20483066141605377, -0.17744070291519165, -0.07049708068370819, 0.027687350288033485, -0.07146331667900085, 0.13701027631759644, 0.12109418213367462, -0.13919171690940857, -0.05428019165992737, -0.1284201443195343, 0.1150638535618782, -0.02231905795633793, -0.12222019582986832, -0.06927788257598877, -0.1106543317437172, 0.04828692227602005, 0.0691167339682579, -0.0726454108953476, 0.07199285179376602, 0.1894039809703827, -0.09594831615686417, 0.10538201034069061, -0.20986926555633545, 0.020371994003653526, -0.08082068711519241, 0.12533746659755707, -0.05016063153743744, 0.14209331572055817, -0.022390712052583694, -0.22275571525096893, -0.06716710329055786, 0.0922732725739479, -0.04383036121726036, 0.1727014183998108, -0.07837201654911041, -0.138353630900383, 0.1008274182677269, 0.015316920354962349, 0.03435797616839409, -0.15537263453006744, -0.08348073810338974, -0.035990115255117416, -0.054654672741889954, 0.10906277596950531, 0.1932876706123352, 0.11979971081018448, 0.15046502649784088, -0.040074631571769714, -0.026780273765325546, 0.07023748755455017, 0.2872433364391327, -0.150041863322258, 0.20599602162837982, -0.013351394794881344, 0.17724524438381195, -0.0031306759919971228, 0.10821427404880524, 0.09543713182210922, -0.07649862766265869, 0.1867813766002655, -0.07537006586790085, 0.08035413175821304, 0.07897317409515381, -0.13636188209056854, 0.17995688319206238, 0.018132006749510765, 0.023469310253858566, 0.13780510425567627, -0.039124757051467896, 0.06659560650587082, -0.09087212383747101, -0.03897752985358238, -0.13673211634159088, 0.009708991274237633, 0.13419288396835327, 0.1262039691209793, 0.13049300014972687, 0.004899436607956886, 0.057403046637773514, -0.05946831777691841, 0.0009983568452298641, 0.049759939312934875, -0.08060472458600998, -0.0010520080104470253, -0.12241268157958984, 0.12531214952468872, 0.021210413426160812, 0.04994218796491623, -0.059663280844688416, 0.018543027341365814, 0.02303731068968773, 0.08317922800779343, -0.07933977991342545, -0.025227751582860947, -0.1026301383972168, 0.1889861673116684, 0.0010182101977989078, 0.008660810068249702, -0.10998217016458511, 0.013640682213008404, -0.025313757359981537, 0.10301332920789719, 0.09016741812229156, -0.051306646317243576, 0.07199719548225403, 0.1731685847043991, -0.03731490299105644, -0.012260176241397858, -0.07065199315547943, 0.1667362004518509, 0.06535343825817108, 0.18402738869190216, -0.14818163216114044, -0.24068352580070496, 0.04290637746453285, -0.2039085030555725, -0.0007883176440373063, -0.035236213356256485, -0.10757768154144287, 0.2000303715467453, 0.18201853334903717, -0.16268351674079895, -0.06025326997041702, 0.04325982555747032, -0.05175357684493065, -0.021196933463215828, -0.021563686430454254, -0.05696004629135132, 0.1317078024148941, -0.12309817969799042, 0.05997997522354126, -0.00048259171308018267, 0.05852522701025009, -0.05636479705572128, 0.018681181594729424, 0.24084703624248505, 0.03260551393032074, -0.02969544753432274, 0.013949526473879814, -0.10048723965883255, -0.08505096286535263, 0.029850877821445465, -0.026145171374082565, 0.20924313366413116, -0.04925914853811264, 0.06420789659023285, -0.0975767970085144, 0.047018975019454956, 0.013625647872686386, -0.1720849722623825, 0.10991006344556808, 0.1971939653158188, -0.10095055401325226, 0.05124657228589058, 0.11228732764720917, -0.21579067409038544, -0.01784375309944153, 0.042368851602077484, -0.008809185586869717, 0.009852919727563858, 0.12913767993450165, 0.14576008915901184, -0.16102373600006104, 0.04599311947822571, 0.10163440555334091, 0.1258702427148819, 0.13799704611301422, 0.058351386338472366, -0.11068221926689148, -0.1530417501926422, -0.22292307019233704, -0.06305155903100967, -0.19055743515491486, 0.016472971066832542, 0.16480158269405365, -0.04482070356607437, -0.1267394870519638, -0.035576172173023224, 0.02781388908624649, 0.12867645919322968, 0.07077956944704056, 0.08216280490159988, 0.15124894678592682, 0.18922340869903564, 0.10561477392911911, 0.09061361104249954, -0.13742080330848694, -0.12421991676092148, -0.11931146681308746, 0.2514478862285614, 0.05693300440907478, -0.0019510847050696611, -0.09363393485546112, 0.07621672749519348, 0.21593384444713593, -0.046516936272382736], [0.1236238107085228, -0.06937805563211441, 0.08643787354230881, 0.0037738741375505924, 0.00977538526058197, 0.10222066193819046, 0.11222752183675766, 0.16754017770290375, -0.045985378324985504, -0.05544092506170273, 0.286630243062973, -0.02404906041920185, -0.17104536294937134, -0.2978813648223877, 0.12199828028678894, -0.10530099272727966, -0.001429352443665266, -0.047152575105428696, 0.12311062216758728, 0.011386544443666935, 0.19550831615924835, 0.01120740920305252, 0.16969767212867737, -0.05727003142237663, 0.026377404108643532, 0.04810253530740738, 0.10503442585468292, 0.021878937259316444, -0.000934440759010613, 0.07606814801692963, 0.31503310799598694, 0.20646490156650543, -0.18211764097213745, 0.2659139335155487, 0.03348982706665993, -0.07357233017683029, 0.06292549520730972, -0.03842346370220184, -0.1417471170425415, -0.2927599549293518, 0.06501433998346329, 0.2077207863330841, -0.09472275525331497, -0.09068199247121811, 0.04686461761593819, -0.27179571986198425, 0.3181329369544983, -0.020547393709421158, 0.015184813179075718, -0.05180440470576286, -0.11654283106327057, 0.14835700392723083, -0.09066265821456909, 0.04605915769934654, 0.07619768381118774, -0.05541660264134407, 0.10935834050178528, 0.04045853018760681, -0.020096395164728165, -0.0011433379258960485, 0.0537402369081974, -0.03394783288240433, -0.13032320141792297, -0.26115715503692627, -0.21204133331775665, 0.03139622136950493, 0.007770979776978493, -0.28069746494293213, 0.06342343986034393, 0.11529620736837387, 0.19116108119487762, -0.03701552376151085, -0.16887888312339783, 0.09714830666780472, 0.02194509468972683, 0.10284950584173203, -0.05002165958285332, -0.08584237098693848, 0.09199073910713196, -0.19243556261062622, -0.13626091182231903, 0.22070135176181793, -0.03819606080651283, -0.17865847051143646, -0.04294458404183388, -0.15514981746673584, -0.19882291555404663, -0.03650643303990364, 0.15188473463058472, 0.21451982855796814, -0.08657856285572052, 0.03190179169178009, 0.11072862893342972, 0.0007566589629277587, 0.11884510517120361, 0.16474859416484833, -0.06408936530351639, 0.21345001459121704, -0.07738392055034637, 0.16930124163627625, 0.17503143846988678, 0.02613130211830139, 0.06872279196977615, -0.09903035312891006, -0.1443527638912201, -0.040870022028684616, -0.13475912809371948, 0.0792166218161583, -0.1502789855003357, 0.26690006256103516, -0.24425767362117767, -0.011703786440193653, -0.03318469598889351, 0.26566198468208313, -0.06318940222263336, 0.04896107316017151, 0.059586454182863235, -0.30160772800445557, -0.032416507601737976, 0.06416051834821701, 0.04736402630805969, 0.10285868495702744, 0.05728359520435333, 0.17253367602825165, -0.026984304189682007, -0.12753824889659882, -0.03558377921581268, -0.17719900608062744, 0.00668462784960866, -0.02970105968415737, -0.22799929976463318, -0.02919784188270569, 0.08083973079919815, -0.08980382233858109, 0.06509009748697281, 0.0907314196228981, 0.08231977373361588, 0.23818784952163696, 0.07207503169775009, 0.1841547191143036, 0.061752233654260635, -0.07071977853775024, -0.028999697417020798, 0.10496079176664352, 0.23230956494808197, 0.021214839071035385, 0.06432747095823288, 0.4708564579486847, 0.1627415269613266, 0.1502123475074768, -0.019329141825437546, -0.005515032913535833, 0.14940126240253448, 0.0007380175520665944, 0.09143751114606857, -0.21410849690437317, -0.22430841624736786, -0.12457477301359177, 0.3494076132774353, 0.1604708880186081, 0.038621485233306885, -0.1346817910671234, -0.05766985937952995, -0.1689676195383072, -0.06358007341623306, 0.05434952303767204, 0.13009501993656158, -0.12770989537239075, -0.00814030971378088, 0.09445551782846451, 0.00655894773080945, -0.06323694437742233, 0.05420379713177681, -0.15167872607707977, -0.18503327667713165, 0.07504415512084961, 0.13921409845352173, -0.06286245584487915, -0.05526379868388176, 0.12715992331504822, -0.15752793848514557, 0.09560560435056686, -0.32620421051979065, 0.139535591006279, -0.034322332590818405, 0.22510239481925964, 0.09428656101226807, -0.11748740077018738, 0.12660036981105804, 0.2587146461009979, -0.06460369378328323, -0.11570747941732407, -0.1584252566099167, 0.2768407464027405, -0.18504448235034943, -0.02426251210272312, 0.1444152146577835, -0.07676771283149719, 0.1133972555398941, 0.016718780621886253, 0.10736554116010666, -0.11894384026527405, -0.012798422016203403, -0.0838712751865387, 0.0012571216793730855, -0.0845160037279129, 0.08413209021091461, 0.027010386809706688, -0.13399358093738556, -0.011048631742596626, 0.026129158213734627, -0.2903149127960205, -0.061205536127090454, -0.06937675178050995, -0.08904556185007095, -0.04098856449127197, 0.1914401799440384, 0.03196389973163605, -0.07346977293491364, -0.05506209284067154, -0.09503919631242752, -0.0733310729265213, -0.04983290657401085, 0.083987757563591, 0.10689328610897064, 0.01952459290623665, 0.08713249862194061, -0.09548883885145187, -0.05610763281583786, -0.14236782491207123, 0.03796522319316864, -0.05765697360038757, 0.10213316977024078, -0.24097497761249542, 0.0973239541053772, -0.04525458812713623, -0.14376084506511688, 0.1182684451341629, 0.06244407221674919, 0.24847805500030518, -0.07197749614715576, 0.28231653571128845, 0.10211057215929031, 0.06477255374193192, 0.05987118184566498, -0.10248022526502609, 0.08414802700281143, 0.05738011747598648, 0.05040336772799492, 0.010731915012001991, -0.10508057475090027, -0.03411257266998291, 0.32119518518447876, -0.10280311852693558, -0.03479868546128273, -0.027317512780427933], [0.09334126114845276, 0.058506738394498825, 0.05459092557430267, -0.1308738887310028, 0.142263263463974, 0.07947829365730286, 0.02389701083302498, -0.11284217983484268, 0.11721711605787277, 0.018272187560796738, 0.006019348278641701, 0.05667176842689514, 0.1643161177635193, -0.11252138763666153, 0.12891685962677002, 0.055768221616744995, 0.08486420661211014, -0.26892828941345215, -0.057891178876161575, 0.05737621709704399, -0.08775864541530609, 0.3260590136051178, -0.1373920440673828, -0.22182735800743103, -0.1836250126361847, -0.04752826318144798, -0.06564545631408691, -0.04447339475154877, -0.10614028573036194, -0.06669090688228607, -0.09473720192909241, 0.10413216054439545, -0.03391445800662041, 0.0398733876645565, 0.00913843885064125, -0.352655291557312, -0.08704763650894165, -0.011231889016926289, -0.158949613571167, -0.1715153157711029, -0.03458082675933838, 0.043923232704401016, 0.12686195969581604, 0.04294953867793083, -0.10853465646505356, -0.08922648429870605, 0.0011793122394010425, -0.1815623939037323, 0.0917445495724678, -0.15513132512569427, 0.03230367228388786, -0.04418092966079712, 0.09277991950511932, -0.02818869985640049, 0.008770618587732315, -0.05369911715388298, 0.05535345897078514, 0.0921618789434433, -0.02843763865530491, 0.11479061841964722, 0.028789078816771507, -0.06933783739805222, 0.203713059425354, 0.338001012802124, -0.28854820132255554, 0.10358762741088867, 0.04396073520183563, -0.1058911383152008, 0.039359141141176224, 0.017764458432793617, -0.12268507480621338, 0.07452520728111267, -0.0036131078377366066, 0.04466918483376503, -0.03998261317610741, 0.04533178731799126, 0.041443876922130585, -0.039243437349796295, -0.13949871063232422, 0.0822807103395462, -0.007208856288343668, 0.04275789484381676, 0.07373001426458359, 0.20035630464553833, -0.018064379692077637, -0.20278732478618622, -0.09565486013889313, 0.04965301603078842, 0.05735545977950096, -0.09260958433151245, 0.044442541897296906, -0.16543343663215637, -0.04353804141283035, 0.033308155834674835, 0.013171292841434479, -0.1955895870923996, -0.2577178180217743, 0.0857192650437355, 0.01853358931839466, 0.0233102235943079, 0.0033350950106978416, 0.041610922664403915, -0.23154115676879883, 0.08641015738248825, -0.1632966846227646, -0.11409419775009155, -0.006022637709975243, -0.15197259187698364, 0.17171023786067963, -0.012050329707562923, -0.18115800619125366, -0.02199093997478485, -0.011739904060959816, 0.06585845351219177, -0.033643536269664764, -0.06184379756450653, -0.29015645384788513, 0.21000924706459045, -0.07691671699285507, -0.2382131963968277, -0.1434660702943802, 0.028449127450585365, 0.0674329549074173, 0.08327802270650864, -0.07632747292518616, -0.05488848313689232, 0.09607301652431488, -0.15612873435020447, -0.04727904871106148, 0.042521748691797256, 0.1508851796388626, -0.01422381866723299, -0.1712590605020523, -0.20820987224578857, -0.031822774559259415, -0.18972530961036682, 0.28408992290496826, 0.18881018459796906, -0.3117021322250366, -0.003800205886363983, -0.03318481892347336, 0.2052348107099533, 0.022137382999062538, 0.073758564889431, 0.14005562663078308, -0.015099570155143738, 0.1254684180021286, 0.08669690042734146, 0.18486842513084412, 0.12861855328083038, -0.10759478807449341, 0.02783108875155449, 0.2994266450405121, 0.13972733914852142, 0.15279439091682434, 0.06744453310966492, 0.10835079103708267, -0.06441105902194977, 0.08480537682771683, -0.14174072444438934, 0.18965280055999756, -0.0518098920583725, 0.19361108541488647, -0.004075211007148027, -0.02113027311861515, -0.10288874804973602, 0.13478823006153107, 0.07772597670555115, -0.07994982600212097, 0.04692704975605011, -0.09882564842700958, 0.03786125034093857, -0.09413260221481323, -0.06241495534777641, -0.005459133069962263, 0.07429511845111847, -0.08061275631189346, 0.07939352095127106, 0.0010316590778529644, 0.09502965956926346, -0.026031535118818283, -0.052921589463949203, -0.005162506829947233, 0.03984706848859787, -0.02175946533679962, 0.18649476766586304, -0.05818629264831543, 0.1262233853340149, -0.04852550849318504, 0.04424147307872772, 0.052011456340551376, -0.22843880951404572, -0.029015984386205673, 0.007603683043271303, -0.02905002422630787, -0.16899730265140533, -0.12089914083480835, 0.004268213175237179, -0.27281075716018677, -0.10486787557601929, -0.03055994212627411, -0.13186238706111908, 0.07381259649991989, 0.06541726738214493, 0.07032392174005508, -0.23265695571899414, 0.03850575536489487, 0.08783280104398727, -0.30967992544174194, -0.03729865327477455, 0.06854167580604553, -0.271343857049942, -0.028823433443903923, -0.06492745131254196, 0.16188295185565948, 0.03229103237390518, -0.09416292607784271, -0.014087230898439884, -0.025095388293266296, 0.19414149224758148, -0.10469736903905869, 0.26751381158828735, 0.0910191684961319, -0.04425783455371857, -0.0001637301902519539, -0.024100815877318382, 0.07359275966882706, 0.035063087940216064, 0.07399537414312363, -0.23371893167495728, -0.021627359092235565, 0.09475428611040115, -0.12284643948078156, -0.15927350521087646, -0.07728530466556549, -0.16447289288043976, 0.06556351482868195, 0.01253661047667265, 0.1344127357006073, 0.0449657216668129, -0.10228030383586884, -0.07189080119132996, 0.06356344372034073, -0.04195932298898697, 0.11314325779676437, -0.0198147501796484, -0.14756330847740173, -0.00788127165287733, 0.1231878250837326, -0.10152702033519745, -0.2289283573627472, 0.23760128021240234, -0.026431921869516373, 0.05200094357132912, -0.11539864540100098, -0.10701233893632889], [-0.10818946361541748, 0.2217969447374344, 0.2092113196849823, -0.2556709945201874, 0.13134287297725677, -0.07126855105161667, -0.09482797235250473, -0.20315875113010406, -0.06690271198749542, 0.20784682035446167, -0.02887777052819729, -0.11055615544319153, 0.133429154753685, -0.21321433782577515, -0.25338321924209595, 0.2924065887928009, 0.1921996772289276, -0.019064107909798622, 0.0016675142105668783, -0.2171815186738968, 0.006719585508108139, 0.0956084355711937, -0.16546204686164856, 0.037918057292699814, 0.006549064535647631, -0.015341468155384064, -0.18665945529937744, -0.14209875464439392, -0.11997772008180618, -0.08939219266176224, -0.14222098886966705, 0.2250240445137024, 0.1355534791946411, 0.09963512420654297, 0.20707249641418457, -0.0826464295387268, -0.07601049542427063, -0.055704984813928604, 0.12108311802148819, 0.10370448231697083, 0.03430996462702751, 0.10532935708761215, 0.10571330785751343, -0.06120796129107475, -0.0013242675922811031, 0.03874946013092995, 0.11550182104110718, 0.13513579964637756, 0.08446063101291656, -0.22731997072696686, -0.24258163571357727, -0.04850984737277031, 0.112300805747509, 0.12012829631567001, 0.10552122443914413, -0.0008137463009916246, 0.01719065010547638, -0.014681403525173664, 0.03820212185382843, 0.11766308546066284, 0.07784977555274963, -0.166116863489151, 0.0592692531645298, 0.17290572822093964, 0.12775370478630066, 0.21939581632614136, -0.028333110734820366, -0.15282490849494934, 0.040055979043245316, -0.2505696713924408, 0.22195224463939667, -0.005544211715459824, 0.09643629938364029, -0.12062244117259979, -0.13717763125896454, 0.051176801323890686, -0.1450158804655075, -0.08027834445238113, -0.1785774976015091, -0.07061994820833206, -0.17569191753864288, -0.07231863588094711, -0.13080482184886932, -0.21060557663440704, -0.20523011684417725, 0.07216784358024597, -0.1300886571407318, 0.03651227429509163, 0.06592751294374466, -0.15467333793640137, -0.023355945944786072, 0.0152525519952178, 0.061746105551719666, 0.21012678742408752, -0.21758045256137848, -0.14399884641170502, -0.07002300769090652, -0.1076393723487854, 0.05484938248991966, -0.03237654268741608, -0.2253868728876114, 0.017523756250739098, -0.18020789325237274, 0.050647493451833725, -0.0028744693845510483, 0.2384592890739441, 0.02716912142932415, 0.06147480010986328, -0.08501288294792175, -0.0497560128569603, 0.20140476524829865, -0.046623263508081436, 0.29799193143844604, 0.03339012339711189, 0.16137608885765076, -0.06902623176574707, -0.0923875942826271, 0.018109949305653572, -0.007593854330480099, 0.05311141535639763, -0.1450767070055008, 0.18424943089485168, 0.07565116882324219, 0.08218725770711899, 0.09361967444419861, -0.09815067052841187, 0.024072671309113503, 0.0395125076174736, 0.09199350327253342, -0.04213567450642586, -0.1369786560535431, 0.03342696651816368, 0.15440633893013, 0.1691448837518692, 0.2344866394996643, 0.04833655059337616, 0.10990845412015915, 0.09228986501693726, -0.18133185803890228, -0.013077272102236748, -0.0014164649182930589, 0.13657115399837494, 0.06801265478134155, 0.10244104266166687, -0.1616041511297226, -0.09745299071073532, 0.11479908227920532, 0.04928634315729141, 0.01660345494747162, 0.15770846605300903, 0.07668834179639816, 0.06095394119620323, -0.08022269606590271, 0.10599842667579651, 0.12448908388614655, 0.03671909496188164, 0.1080278605222702, 0.06143266335129738, 0.018673958256840706, 0.037794843316078186, -0.007149375043809414, 0.1310807317495346, 0.04774477705359459, 0.20311813056468964, 0.23551823198795319, 0.09171967208385468, 0.20764930546283722, -0.06123244762420654, 0.0077734338119626045, 0.21691152453422546, 0.040284331887960434, 0.2695697546005249, -0.10120018571615219, -0.2387591004371643, 0.21279960870742798, -0.07513079792261124, 0.08801530301570892, -0.013531382195651531, 0.12735553085803986, 0.10553635656833649, 0.24819327890872955, -0.0704219862818718, -0.009873352944850922, -0.13090437650680542, 0.014693930745124817, 0.001501333899796009, -0.119522824883461, -0.14555637538433075, -0.023978497833013535, -0.15312983095645905, 0.2750324308872223, 0.08283454924821854, 0.15076549351215363, -0.014098570682108402, -0.1358744204044342, 0.16709895431995392, -0.01710505783557892, 0.20739446580410004, -0.08395019173622131, -0.1338365375995636, -0.13036438822746277, -0.10844424366950989, 0.2568725049495697, 0.20780187845230103, 0.05410030111670494, 0.08102994412183762, -0.1232379898428917, -0.016761576756834984, -0.10515762120485306, -0.011384988203644753, 0.11549574881792068, -0.030220281332731247, -0.06801029294729233, 0.17205889523029327, 0.044432707130908966, -0.24018529057502747, -0.053088996559381485, 0.16481715440750122, 0.05787670612335205, 0.11759430170059204, 0.21657565236091614, 0.02512473054230213, -0.07891108095645905, -0.04412546381354332, 0.12105253338813782, -0.07396342605352402, -0.11809094995260239, 0.039576467126607895, 0.031068161129951477, 0.07821942120790482, -0.13391296565532684, 0.12774939835071564, -0.24984104931354523, 0.23428510129451752, 0.17861759662628174, -0.23749274015426636, -0.09644263237714767, 0.09768383949995041, 0.14645490050315857, -0.057276684790849686, 0.22921296954154968, -0.09479125589132309, -0.026749953627586365, -0.0018801618134602904, 0.3238140940666199, -0.06487260013818741, -0.03078252263367176, -0.23485857248306274, 0.09247288852930069, 0.2198256552219391, -0.13252419233322144, 0.001360193477012217, 0.062082793563604355, -0.14490021765232086, 0.11125797778367996, 0.13470248878002167], [0.14430750906467438, -0.1503247320652008, -0.007967325858771801, 0.09539876133203506, 0.01721581630408764, -0.023825863376259804, 0.10478072613477707, 0.1693587303161621, -0.026697270572185516, 0.10227057337760925, 0.2578407824039459, -0.06315384805202484, -0.15001705288887024, -0.10187634825706482, 0.13551665842533112, -0.05429090932011604, -0.046873852610588074, 0.07414162158966064, -0.11468908935785294, 0.05998256802558899, 0.1723250448703766, -0.03379964083433151, 0.03668323531746864, -0.04261886328458786, 0.09838522970676422, 0.1423535943031311, 0.22117352485656738, 0.0657864362001419, -0.040214020758867264, 0.1751927137374878, 0.004097923636436462, -0.07703445851802826, -0.027618244290351868, 0.034142009913921356, 0.0757952630519867, 0.004520973656326532, 0.13940799236297607, -0.13060469925403595, -0.08340068906545639, -0.14053037762641907, -0.16255301237106323, 0.049852725118398666, 0.008512892760336399, -0.06864024698734283, 0.06984376162290573, -0.1830766350030899, 0.1692323237657547, -0.12346383929252625, 0.12641216814517975, -0.07707859575748444, 0.11214350163936615, 0.030385054647922516, -0.031053422018885612, -0.2052529752254486, 0.09908509254455566, -0.11677365005016327, 0.07048426568508148, -0.07816576957702637, -0.08573073893785477, -0.12414301931858063, 0.07057692110538483, -0.06676793843507767, -0.05471520498394966, -0.039697468280792236, -0.24378295242786407, -0.16587470471858978, 0.04037957265973091, -0.1320861428976059, -0.03722656890749931, 0.078150674700737, 0.006667629815638065, 0.06476927548646927, -0.2714231014251709, -0.03443446010351181, -0.006373186595737934, -0.04406648501753807, 0.07647749781608582, -0.09562457352876663, 0.19070042669773102, 0.020824182778596878, 0.07092928141355515, 0.0017225710907950997, 0.15326470136642456, 0.018574994057416916, 0.11726576089859009, -0.16903167963027954, -0.20019493997097015, -0.12265374511480331, 0.12816986441612244, 0.0021946444176137447, -0.029317110776901245, -0.09990119934082031, -0.03350238502025604, -0.03970235213637352, 0.18643146753311157, 0.09335561841726303, 0.0652657225728035, 0.22155554592609406, -0.05554302781820297, 0.14950884878635406, 0.20156961679458618, 0.14136935770511627, -0.00853068195283413, 0.11527295410633087, 0.007072241511195898, -0.031353868544101715, 0.1307133585214615, 0.11133142560720444, -0.08946274220943451, 0.15840978920459747, -0.16127750277519226, 0.03806500509381294, 0.0794050544500351, 0.2389335334300995, 0.06601681560277939, 0.11330306529998779, 0.0032669268548488617, -0.0631362646818161, -0.1563946008682251, 0.02017347142100334, -0.08559075742959976, 0.028586236760020256, 0.00981109868735075, 0.00509786419570446, -0.1712447553873062, -0.20717282593250275, 0.03991590440273285, -0.11232982575893402, 0.007202310021966696, 0.01821180060505867, 0.04655890911817551, -0.12090237438678741, -0.09116241335868835, 0.0890897735953331, -0.04046818986535072, -0.10454918444156647, 0.14842718839645386, 0.16384391486644745, -0.017695613205432892, -0.0892430990934372, 0.02739596925675869, 0.02394271083176136, 0.13053742051124573, 0.08574981242418289, 0.057759080082178116, -0.012470943853259087, 0.12300471216440201, 0.4235314428806305, 0.14509423077106476, -0.10284150391817093, -0.05291540548205376, 0.13572542369365692, 0.010788018815219402, -0.046250972896814346, -0.016063349321484566, -0.022562330588698387, -0.26720455288887024, 0.08710651099681854, 0.2560955584049225, 0.23203149437904358, 0.06981498748064041, 0.02907598949968815, 0.08018326759338379, -0.15587255358695984, -0.07927604019641876, 0.1916116178035736, -0.032857056707143784, -0.08533361554145813, 0.028126884251832962, 0.10033594071865082, 0.11433696001768112, -0.13541339337825775, 0.014902835711836815, -0.1405704915523529, -0.24177145957946777, -0.05064903199672699, 0.15606652200222015, 0.06469517201185226, -0.07459243386983871, 0.08094166219234467, -0.003917878493666649, -0.036550529301166534, -0.27284184098243713, -0.13059107959270477, -0.0862383171916008, 0.16682668030261993, 0.027556464076042175, -0.11016883701086044, -0.003579601412639022, 0.09399142116308212, -0.13323979079723358, 0.06019676849246025, -0.16381146013736725, 0.27507415413856506, 5.1375256589381024e-05, -0.11901355534791946, 0.030644722282886505, 0.03949031978845596, 0.14438800513744354, -0.0010227311868220568, 0.027500096708536148, -0.0720861554145813, -0.04899362474679947, -0.12372978776693344, -0.1318182498216629, 0.07598374038934708, -0.0923144742846489, -0.025922734290361404, 0.07552368193864822, 0.023579109460115433, -0.025673191994428635, -0.21655678749084473, 0.05180857703089714, -0.15374471247196198, -0.057084519416093826, 0.031584471464157104, 0.1340053677558899, -0.06952893733978271, -0.11737706512212753, 0.005637249443680048, -0.1434289813041687, -0.10263361036777496, -0.0804840549826622, -0.10643167793750763, -0.050798092037439346, 0.01519461628049612, 0.133038729429245, -0.033535730093717575, 0.116270050406456, -0.1340215802192688, 0.2104746401309967, 0.04683491587638855, 0.18620693683624268, -0.09817440807819366, 0.03303155303001404, 0.007183836307376623, -0.030623259022831917, 0.10022342205047607, -0.07995718717575073, 0.21544113755226135, -0.035277582705020905, 0.19377508759498596, 0.04439627379179001, 0.08298581093549728, -0.14428646862506866, 0.11870694160461426, 0.07301102578639984, 0.10087134689092636, 0.20409606397151947, -0.0951676294207573, -0.1924373060464859, -0.006755686365067959, 0.21854692697525024, -0.1370113492012024, 0.018171772360801697, -0.0800817683339119], [-0.011152940802276134, -0.1359848976135254, -0.08693353086709976, -0.3332795202732086, 0.15452377498149872, -0.056227296590805054, 0.001806603162549436, -0.11000847071409225, -0.018562357872724533, 0.1413659006357193, -0.12327904254198074, -0.05935705080628395, 0.4550037682056427, 0.11116744577884674, -0.03595469519495964, -0.14241817593574524, -0.01247363444417715, -0.09297073632478714, -0.19980211555957794, 0.14820660650730133, -0.21500515937805176, 0.5421927571296692, -0.053376127034425735, -0.14460532367229462, 0.08987047523260117, -0.06988298892974854, -0.08334440737962723, -0.10731246322393417, -0.20184819400310516, 0.0419510155916214, -0.06283953785896301, 0.15166667103767395, -0.0687946006655693, 0.0461910180747509, 0.12953265011310577, -0.4162416160106659, -0.013987399637699127, 0.05668636038899422, -0.009980855509638786, -0.1497465819120407, -0.04681538790464401, -0.015523253940045834, 0.06670781224966049, 0.030720001086592674, -0.02740274742245674, -0.026961255818605423, -0.15506625175476074, -0.08712796121835709, 0.08850029855966568, -0.16282472014427185, -0.1407400220632553, 0.10128505527973175, 0.02297961711883545, 0.16396598517894745, -0.01573309674859047, -0.029717454686760902, -0.16991275548934937, 0.03491129353642464, 0.0104443971067667, -0.046931006014347076, -0.030378343537449837, -0.33400440216064453, 0.22794082760810852, 0.5231295228004456, -0.20478342473506927, -0.13386988639831543, -0.05388246849179268, -0.012931782752275467, -0.05518022179603577, -0.15879304707050323, -0.02689107321202755, 0.10611230880022049, 0.11851014196872711, 0.14736680686473846, 0.06302982568740845, 0.16048340499401093, 0.1159311830997467, 0.03513074666261673, 0.05122341215610504, 0.3637922406196594, -0.04369660094380379, 0.15254764258861542, 0.04261510819196701, 0.06571190059185028, -0.15446393191814423, -0.2664650082588196, -0.15525686740875244, -0.13914921879768372, 0.04604187235236168, -0.11358917504549026, -0.0653148666024208, -0.04314952343702316, -0.2047857642173767, -0.16430997848510742, 0.12400341778993607, -0.13121454417705536, -0.31598523259162903, -0.035888392478227615, -0.008921589702367783, -0.10187693685293198, 0.1299257129430771, -0.013461976312100887, -0.2648533284664154, 0.07957559078931808, 0.02630801312625408, 0.026279648765921593, -0.08193524181842804, -0.22552521526813507, 0.03344288840889931, -0.11331191658973694, 0.02611735835671425, -0.1236749067902565, -0.08607210963964462, -0.12741655111312866, 0.0060022491961717606, 0.02040100283920765, -0.27863916754722595, 0.09636690467596054, -0.10065069049596786, -0.19703936576843262, -0.10723701119422913, 0.0903499573469162, 0.03341565281152725, -0.015026137232780457, 0.056845132261514664, 0.11684095114469528, 0.370888888835907, -0.06537320464849472, 0.13335898518562317, -0.12805746495723724, -0.010326549410820007, 0.12004061043262482, -0.1596418172121048, -0.2832431495189667, -0.08326360583305359, -0.20946313440799713, 0.4021250605583191, 0.11747107654809952, -0.6394338011741638, -0.033003535121679306, 0.007993437349796295, 0.2599855661392212, -0.04755638539791107, 0.08202902227640152, -0.013880886137485504, -0.2513355016708374, 0.056174661964178085, 0.10413835197687149, -0.0178261436522007, -0.018157685175538063, -0.09527378529310226, 0.010275738313794136, 0.5139226317405701, -0.08591200411319733, 0.060459960252046585, 0.009491766802966595, 0.1767347753047943, -0.0003625410608947277, 0.20488932728767395, -0.12052226066589355, 0.004718131385743618, -0.09771564602851868, 0.18165355920791626, -0.020739980041980743, 9.471154771745205e-05, 0.007540905382484198, 0.09438785910606384, 0.1784016638994217, -0.21175134181976318, 0.19019809365272522, -0.05042656883597374, 0.028996910899877548, -0.08701585233211517, 0.2052866369485855, 0.044013042002916336, 0.11754980683326721, 0.10555317252874374, -0.07750987261533737, -0.060289833694696426, -0.012936915270984173, -0.1048189103603363, -0.24644972383975983, -0.1780056655406952, 0.007884161546826363, -0.09170683473348618, 0.2265319675207138, 0.015615749172866344, -0.03766198083758354, -0.0936654582619667, -0.052378300577402115, -0.06503848731517792, 0.001394821796566248, 0.08809318393468857, -0.03909267485141754, -0.13851794600486755, -0.11894246190786362, -0.0013503091176971793, 0.09873367100954056, -0.6426486372947693, -0.0735536739230156, -0.12812605500221252, -0.22478318214416504, -0.06740040332078934, -0.05644912272691727, 0.02288079261779785, -0.3419228494167328, -0.007352461572736502, -0.03204084187746048, -0.5977581143379211, -0.20939183235168457, 0.0873740017414093, -0.27536702156066895, 0.027765890583395958, -0.03922250494360924, -0.033160507678985596, -0.0057334559969604015, -0.06097458302974701, 0.002367811743170023, 0.2547711431980133, 0.05968542769551277, 0.12267459183931351, 0.6710041165351868, -0.008314801380038261, -0.1865411102771759, 0.04196714982390404, -0.11734320968389511, 0.08737470209598541, -0.06676093488931656, -0.20658351480960846, -0.37140390276908875, 0.07114536315202713, -0.08373531699180603, 0.0020810840651392937, 0.06681852042675018, -0.10685119032859802, -0.06240677833557129, 0.05176541954278946, 0.12197986245155334, 0.14004388451576233, 0.18208850920200348, 0.01687704585492611, 0.0440196767449379, 0.14254295825958252, 0.03818143531680107, -0.11286278069019318, 0.21959275007247925, -0.3307490348815918, 0.08692298084497452, 0.010857312940061092, -0.1580614298582077, -0.19013714790344238, 0.5746366381645203, -0.04386771842837334, 0.08856277912855148, 0.05061196908354759, -0.039012957364320755], [0.1286173164844513, 0.30541157722473145, 0.1939743459224701, -0.1677536517381668, 0.2362467497587204, -0.03573082014918327, 0.054665230214595795, -0.16233806312084198, -0.26369813084602356, 0.19296608865261078, -0.08250163495540619, -0.14602220058441162, 0.17667505145072937, -0.10101991891860962, -0.2423660010099411, 0.14682015776634216, 0.20593179762363434, -0.03784188628196716, 0.16664427518844604, -0.0388156995177269, 0.07300300151109695, -0.19229073822498322, -0.11175113171339035, 0.05161081999540329, 0.007236574776470661, 0.0952843427658081, -0.010258262977004051, -0.04595087468624115, 0.09149862080812454, 0.07946766912937164, 0.07570115476846695, 0.17863868176937103, 0.29534974694252014, 0.020746443420648575, 0.2578851282596588, 0.05666317045688629, -0.16860197484493256, -0.2156592458486557, 0.25526222586631775, 0.20079155266284943, 0.21524977684020996, 0.13267022371292114, 0.13422662019729614, 0.06981923431158066, -0.2764325737953186, 0.026207832619547844, -0.15373040735721588, 0.295308381319046, 0.16869287192821503, -0.26596909761428833, -0.2600284814834595, 0.12552304565906525, 0.11645813286304474, 0.023147152736783028, 0.10157317668199539, 0.11280228197574615, 0.2193026840686798, -0.21284739673137665, 0.28007644414901733, 0.14822572469711304, 0.1670529991388321, -0.0741201862692833, -0.1056310161948204, -0.07532277703285217, 0.0947963073849678, 0.31962865591049194, -0.040416330099105835, -0.05194025859236717, -0.1709015667438507, -0.286454975605011, 0.12517447769641876, -0.09977256506681442, 0.09431391954421997, -0.07927659898996353, -0.06252463161945343, 0.11407557129859924, 0.025084059685468674, 0.14078576862812042, 0.05060512572526932, -0.20370809733867645, 0.07421838492155075, -0.06219233199954033, -0.08371658623218536, -0.0777740553021431, -0.20395103096961975, 0.16055159270763397, -0.022585945203900337, 0.2362273931503296, -0.05013057589530945, -0.2900982201099396, 0.04050542786717415, 0.05521802976727486, -0.12683610618114471, 0.15715278685092926, -0.15886075794696808, -0.2904927134513855, 0.05391860753297806, -0.2747865319252014, -0.14258019626140594, -0.10334230959415436, -0.2042558491230011, 0.1121944785118103, -0.02364678494632244, -0.0005708519602194428, 0.134007528424263, 0.2002662867307663, 0.19336260855197906, 0.09684371203184128, 0.14932873845100403, 0.04471062496304512, 0.09580972790718079, -0.14601975679397583, 0.3895025849342346, -0.045640286058187485, 0.23140840232372284, 0.044667720794677734, 0.06590694934129715, 0.0886814296245575, 0.20416265726089478, 0.11249434947967529, 0.0074986908584833145, 0.2898169755935669, -0.12145695835351944, 0.13296549022197723, 0.09826409816741943, -0.16255474090576172, -0.26949790120124817, 0.20503106713294983, -0.005977196153253317, -0.018628466874361038, -0.17218799889087677, 0.17705684900283813, 0.04203307256102562, -0.01783796399831772, -0.01773228868842125, 0.32038846611976624, 0.14449617266654968, 0.05305005982518196, -0.09322469681501389, 0.15972676873207092, -0.1902177631855011, 0.18472760915756226, -0.14048832654953003, 0.019887881353497505, 0.029550207778811455, -0.08998005837202072, -0.11283879727125168, -0.05828821286559105, 0.06426160037517548, 0.24481883645057678, 0.2731993794441223, 0.10808095335960388, -0.052717242389917374, 0.2580603063106537, 0.1482199728488922, -0.17959560453891754, -0.12492155283689499, 0.32287710905075073, -0.09589608013629913, -0.12089652568101883, 0.0706479400396347, 0.29646334052085876, 0.16331259906291962, 0.12012065201997757, 0.17561891674995422, 0.15062616765499115, 0.1905418038368225, -0.07460097968578339, -0.013664123602211475, 0.07886473834514618, -0.09566575288772583, 0.213515967130661, -0.02378823235630989, -0.22976990044116974, 0.21064339578151703, 0.05861177667975426, 0.11543572694063187, -0.13357855379581451, 0.050064269453287125, 0.13705462217330933, 0.1425241380929947, 0.024581532925367355, -0.037961870431900024, -0.001669950084760785, 0.04471636936068535, 0.09744319319725037, -0.21936139464378357, -0.028190430253744125, 0.01359904371201992, 0.08133693784475327, 0.26525092124938965, -0.11254705488681793, 0.030032837763428688, 0.09215099364519119, -0.09520057588815689, 0.10207270830869675, -0.15727129578590393, 0.3326328694820404, 0.04308461770415306, 0.15175001323223114, -0.13347026705741882, 0.014017166569828987, 0.19101470708847046, 0.23910987377166748, 0.18601398169994354, 0.22010426223278046, -0.05046728625893593, -0.07272972166538239, -0.11416301876306534, -0.1843409687280655, 0.2458135485649109, -0.08175337314605713, -0.2879420518875122, 0.26315033435821533, 0.006472336128354073, -0.21377430856227875, 0.0017600643914192915, 0.26432931423187256, -0.1335606724023819, 0.278939425945282, 0.10655831545591354, -0.0929785668849945, -0.1002427339553833, 0.11617669463157654, -0.12832729518413544, 0.054466430097818375, -0.22048451006412506, 0.0031266219448298216, 0.04595470428466797, 0.01771736890077591, -0.06882816553115845, -0.00411797221750021, -0.2919740676879883, 0.27655449509620667, -0.0024871076457202435, -0.29311108589172363, 0.19950732588768005, 0.04132389649748802, 0.23857061564922333, -0.22148734331130981, 0.17063716053962708, 0.1380906105041504, 0.015242713503539562, 0.18494121730327606, 0.3234077990055084, -0.07334163784980774, 0.04898703470826149, -0.23191051185131073, 0.21446922421455383, 0.008063456043601036, -0.012263895943760872, -0.11062274873256683, 0.10903119295835495, -0.13888919353485107, 0.2697387635707855, 0.1401621401309967], [-0.07102491706609726, -0.027410071343183517, 0.13088209927082062, -0.08831505477428436, -0.034190449863672256, -0.08028159290552139, 0.13218292593955994, 0.017143914476037025, 0.002895344514399767, 0.09892044216394424, 0.16027995944023132, -0.008214473724365234, -0.20665055513381958, -0.1646987944841385, 0.08976389467716217, -0.06581081449985504, -0.07972501218318939, 0.09324723482131958, 0.11554501950740814, 0.05738462880253792, 0.14684341847896576, -0.054770272225141525, 0.04979592561721802, -0.04172390326857567, 0.05191733315587044, 0.13779249787330627, -0.06464292854070663, -0.05291137844324112, -0.0688767358660698, -0.08006773889064789, 0.06286254525184631, -0.03900565952062607, -0.1421215832233429, 0.24012139439582825, 0.03270193189382553, -0.09796718508005142, -0.011540070176124573, -0.032144833356142044, 0.053138766437768936, -0.14833545684814453, -0.034237805753946304, 0.21592003107070923, -0.07340528070926666, -0.062421929091215134, -0.020554805174469948, -0.04963783547282219, 0.06615561991930008, -0.0013145324774086475, 0.18571467697620392, -0.03626551851630211, -0.05295420065522194, -0.02965749427676201, -0.0697188451886177, -0.1990339756011963, -0.062387075275182724, 0.05140172317624092, -0.13160890340805054, 0.14478842914104462, -0.05026178061962128, 0.13000065088272095, -0.019465073943138123, -0.012492747977375984, 0.025862453505396843, -0.2031894326210022, -0.18140657246112823, -0.19868701696395874, 0.11853721737861633, -0.13993489742279053, -0.026863673701882362, 0.09762775897979736, 0.01224425807595253, -0.0028670025058090687, 0.014868462458252907, -0.0871628150343895, 0.009734280407428741, -0.002044932683929801, 0.06413557380437851, -0.11591552942991257, 0.04826177656650543, -0.08936770260334015, 0.0069936648942530155, 0.19587931036949158, 0.09288590401411057, -0.10685617476701736, -0.08136249333620071, -0.018230875954031944, -0.07275278866291046, 0.06642325967550278, 0.06651990860700607, -0.0486564077436924, -0.2357897311449051, 0.035581957548856735, 0.13038505613803864, -0.1707662045955658, -0.03700488060712814, 0.0321301594376564, -0.07962220907211304, 0.059223830699920654, -0.005006532184779644, 0.1303456723690033, 0.13611479103565216, -0.0995195135474205, -0.10986752063035965, -0.031610116362571716, -0.07319871336221695, 0.03649045154452324, -0.06241530925035477, -0.007370520383119583, 0.1282770335674286, 0.23451627790927887, -0.22775761783123016, 0.10693594068288803, -0.03469889983534813, 0.07264915108680725, -0.13182947039604187, -0.03728575259447098, -0.10044706612825394, -0.18464995920658112, -0.051725275814533234, -0.015078593045473099, -0.09586697071790695, 0.0994243249297142, 0.05998555198311806, -0.045042067766189575, -0.1776011437177658, -0.07935334742069244, 0.1305721253156662, 0.010668628849089146, 0.12756438553333282, 0.10672536492347717, -0.19961652159690857, -0.08848288655281067, -0.0848836824297905, 0.03863560035824776, 0.16844576597213745, -0.15155352652072906, -0.010734057053923607, 0.10595209896564484, 0.10314342379570007, -0.02284322865307331, 0.09567207098007202, 0.08151768147945404, 0.0011418582871556282, -0.024861514568328857, 0.1650691032409668, -0.03922490030527115, -0.07714363187551498, 0.2783249616622925, 0.06571710109710693, -0.07509817183017731, -0.05339614301919937, 0.11888130009174347, 0.12863820791244507, 0.08631673455238342, 0.07570836693048477, 0.01189175434410572, -0.2031158208847046, -0.06970924139022827, 0.3534190058708191, 0.24311865866184235, 0.2636796832084656, -0.0912722647190094, 0.10616060346364975, -0.02067767269909382, 0.08736354112625122, 0.18459098041057587, 0.14470575749874115, 0.12909074127674103, 0.1312575489282608, -0.08850675076246262, -0.09464190900325775, -0.04725669324398041, 0.20686064660549164, -0.06975364685058594, -0.1911063939332962, 0.016962634399533272, 0.07753001898527145, -0.09307027608156204, 0.02641679160296917, 0.05729208141565323, -0.1606460064649582, -0.06706111878156662, -0.2810191810131073, 0.06167244538664818, 0.045237015932798386, 0.039101820439100266, 0.0018057336565107107, -0.07724642008543015, -0.020768016576766968, 0.3249978721141815, -0.18185722827911377, -0.16358856856822968, -0.08550383150577545, 0.3650718033313751, -0.11361369490623474, -0.09181610494852066, -0.07944932579994202, 0.029390903189778328, 0.18541550636291504, -0.10844257473945618, 0.0456765815615654, -0.005803094711154699, 0.10010212659835815, 0.04890818893909454, -0.11973761767148972, 0.0869959369301796, -0.08233136683702469, 0.11311034113168716, 0.08048233389854431, -0.0965658575296402, -0.15025775134563446, -0.00732662808150053, -0.10196500271558762, -0.1066482663154602, -0.1595263034105301, 0.10148950666189194, 0.20526675879955292, 0.00022209664166439325, -0.031053200364112854, -0.03433241695165634, -0.0655553936958313, 0.0382244698703289, 0.04035935178399086, 0.07556400448083878, 0.19927851855754852, 0.0057288119569420815, 0.12590427696704865, 0.039967648684978485, 0.15350407361984253, -0.04966355487704277, 0.1390567272901535, -0.06836778670549393, 0.07243239134550095, -0.16393131017684937, 0.05766268074512482, -0.12586425244808197, 0.0940966084599495, 0.1627017855644226, -0.06612740457057953, 0.2606353759765625, -0.15880107879638672, 0.19808349013328552, 0.21209126710891724, -0.020969947800040245, -0.07590369135141373, 0.0399770513176918, 0.14006534218788147, 0.14621926844120026, 0.004860206041485071, -0.0948600098490715, -0.15525926649570465, -0.152796670794487, 0.04325888678431511, -0.02813342958688736, 0.04162268713116646, 0.006010750774294138], [0.007656994741410017, -0.006988158915191889, 0.051280081272125244, 0.09543909877538681, -0.2249077707529068, -0.166535422205925, 0.13610917329788208, -0.08359576016664505, 0.04278983175754547, 0.0233582966029644, -0.06501901894807816, 0.050495926290750504, -0.03971897438168526, -0.0628858283162117, 0.07015040516853333, -0.026654990389943123, 0.07422452419996262, -0.09742449969053268, 0.15881958603858948, 0.029517315328121185, -0.0038325937930494547, 0.012287795543670654, 0.058901723474264145, 0.09166768193244934, -0.07098465412855148, 0.2014835923910141, -0.11812221258878708, 0.12384533882141113, 0.0645231083035469, 0.05389874801039696, -0.09941162914037704, -0.22416281700134277, -0.05854690447449684, 0.20134535431861877, 0.17061631381511688, -0.0649988129734993, -0.08046186715364456, 0.0035554575733840466, 0.053564827889204025, 0.00981739442795515, 0.20535391569137573, -0.07104069739580154, 0.14129994809627533, -0.013993585482239723, 0.052153173834085464, -0.09545958042144775, 0.10475772619247437, 0.00769983371719718, 0.012355593033134937, 0.037133339792490005, 0.09990005940198898, -0.07295593619346619, -0.12089977413415909, -0.14587649703025818, -0.11015794426202774, 0.11241243034601212, -0.1523863822221756, 0.12314281612634659, 0.011382171884179115, 0.11242783814668655, -0.036185380071401596, 0.11205124855041504, 0.13727697730064392, 0.16658908128738403, -0.2003084272146225, -0.12130928039550781, -0.02349649742245674, 0.1512216031551361, -0.07426563650369644, 0.05663531646132469, 0.09575414657592773, -0.14903192222118378, 0.007871581241488457, 0.02126477099955082, 0.021577253937721252, -0.24248729646205902, 0.09951693564653397, -0.06475468724966049, 0.08630119264125824, 0.0869598239660263, 0.10259343683719635, -0.1986692249774933, 0.05158510431647301, -0.10730943083763123, -0.012750937603414059, -0.09720146656036377, 0.09958627074956894, -0.008863618597388268, -0.047973111271858215, 0.17189615964889526, -0.09877081960439682, -0.10573861747980118, 0.15654215216636658, 0.16086497902870178, -0.03466217592358589, 0.01836681365966797, -0.052034154534339905, 0.024769887328147888, -0.06382360309362411, 0.09908933937549591, -0.12916848063468933, -0.1313256472349167, 0.112270787358284, 0.07970186322927475, 0.05647384375333786, -0.03333278372883797, -0.08145424723625183, -0.06871231645345688, 0.03249286487698555, 0.01159003283828497, -0.00395616888999939, 0.062497057020664215, 0.028650224208831787, -0.023235442116856575, -0.07308872789144516, -0.11435012519359589, -0.13918741047382355, -0.043312206864356995, 0.08470910787582397, -0.2159610241651535, -0.05270172655582428, 0.035144366323947906, -0.15395896136760712, 0.19315843284130096, -0.14760877192020416, -0.009554296731948853, 0.054108377546072006, -0.030299708247184753, 0.004578814841806889, 0.09854977577924728, -0.11047292500734329, 3.458223363850266e-05, 0.13813677430152893, 0.07763370126485825, -0.05676347017288208, 0.1331227868795395, 0.2902109920978546, 0.19141164422035217, 0.047713033854961395, -0.21175692975521088, 0.09335976839065552, -0.048097457736730576, 0.008747263811528683, -0.07789788395166397, -0.00780530646443367, -0.0722842663526535, -0.13240711390972137, -0.1668398678302765, 0.1024046316742897, -0.09486495703458786, -0.08376891911029816, 0.04417061433196068, -0.03644975274801254, -0.1985827088356018, 0.09220575541257858, 0.04887623339891434, 0.0021844913717359304, -0.002161729149520397, -0.02119430899620056, 0.08440393209457397, -0.1585685908794403, -0.12386684119701385, -0.1525084227323532, 0.004110489506274462, -0.06356092542409897, -0.1906823366880417, 0.1331399381160736, -0.09008940309286118, 0.26875415444374084, -0.24287912249565125, 0.07549072802066803, 0.025735026225447655, -0.027617955580353737, -0.043101344257593155, 0.180362269282341, -0.14301885664463043, -0.0514669306576252, -0.003335267771035433, -0.010192419402301311, -0.08024635165929794, 0.09314223378896713, -0.0067945122718811035, -0.07648514956235886, -0.12208230793476105, -0.05037424713373184, 0.028560668230056763, 0.0009151474805548787, -0.18994414806365967, 0.07663405686616898, 0.01347489096224308, 0.1309307962656021, 0.08739099651575089, 0.17658589780330658, 0.17192824184894562, -0.047018200159072876, -0.15176288783550262, 0.18212063610553741, -0.09072402864694595, -0.1131269559264183, -0.022615499794483185, 0.06100798398256302, 0.10388099402189255, -0.051126040518283844, -0.05462668463587761, 0.05685586482286453, 0.2885974645614624, 0.01749812811613083, 0.14969998598098755, 0.013977598398923874, 0.05307432636618614, 0.03300465643405914, 0.07207851111888885, 0.01816021464765072, 0.048674020916223526, -0.04444997385144234, 0.0558251217007637, 0.0408410020172596, 0.0543370358645916, -0.016411511227488518, -0.12458665668964386, -0.05936097726225853, -0.008821816183626652, 0.08013474941253662, -0.03815417364239693, -0.10621946305036545, -0.15854309499263763, 0.23026494681835175, -0.15960653126239777, -0.05677085369825363, 0.060214221477508545, 0.06707297265529633, -0.11014225333929062, -0.030825069174170494, 0.1800110936164856, -0.06001183018088341, 0.19213417172431946, -0.06389264762401581, -0.044655926525592804, -0.12099786102771759, -0.12831677496433258, -0.0034046408254653215, -0.008973617106676102, -0.21763920783996582, -0.12987756729125977, -0.012313032522797585, 0.11288508772850037, -0.1334613412618637, -0.06196304038167, 0.12157844007015228, -0.010689235292375088, -0.15944358706474304, 0.03531956672668457, -0.03546843305230141, 0.08573058247566223, -0.01940186135470867, 0.0284125879406929], [-0.10032340884208679, 0.12197299301624298, 0.06236078590154648, 0.003977172542363405, 0.11540807783603668, 0.08829066157341003, -0.046688053756952286, -0.06664033234119415, -0.010218733921647072, 0.023762421682476997, 0.011795630678534508, -0.19002848863601685, -0.03439877927303314, 0.030630655586719513, -0.05692068859934807, -0.02528982236981392, 0.1285053938627243, 0.13705871999263763, 0.07048291712999344, 0.034408967941999435, -0.05982024222612381, 0.06906160712242126, 0.07281959056854248, -0.08306512236595154, 0.0600772351026535, 0.11719249933958054, -0.06818635761737823, -0.11549496650695801, -0.10092537105083466, -0.027955811470746994, 0.07846976816654205, -0.07431852072477341, 0.1399187445640564, -0.20838092267513275, 0.04859417676925659, 0.0631173849105835, 0.04380813241004944, -0.019004618749022484, 0.15090443193912506, 0.022674106061458588, 0.017725510522723198, 0.029655644670128822, -0.1440887600183487, 0.15484106540679932, -0.05257600545883179, -0.12043536454439163, -0.08496565371751785, 0.20597510039806366, -0.11115712672472, -0.09014855325222015, 0.06418337672948837, 0.013907798565924168, -0.16323792934417725, -0.14575161039829254, 0.021353377029299736, -0.07199196517467499, 0.08164403587579727, -0.05867082625627518, 0.04580128565430641, -0.06317979842424393, -0.032492853701114655, -0.08947218209505081, 0.08794310688972473, 0.12873700261116028, -0.10613933950662613, 0.1089494600892067, 0.045327700674533844, -0.025134503841400146, -0.03773307800292969, 0.031018152832984924, 0.12124358117580414, 0.014496564865112305, -0.10475799441337585, 0.06931781768798828, 0.058475952595472336, 0.11109604686498642, 0.052350763231515884, 0.1416107565164566, 0.16792841255664825, 0.03460206463932991, -0.03181663900613785, 0.1341933310031891, 0.1303044706583023, 0.053271062672138214, -0.06241276487708092, 0.0905551016330719, -0.029171980917453766, 0.11197866499423981, -0.05247307941317558, 0.1105521023273468, -0.19780166447162628, -0.006944253109395504, 0.03217076137661934, 0.027036152780056, 0.007149785757064819, 0.027233749628067017, 0.2113998532295227, -0.052462030202150345, -0.06260502338409424, 0.1294698864221573, 0.01672140695154667, -0.08967359364032745, 0.1377568542957306, 0.0696563571691513, 0.0427880622446537, 0.06263969838619232, 0.1700531244277954, 0.09289979934692383, 0.04819325730204582, -0.03751663491129875, 0.08820045739412308, 0.1592678427696228, -0.12138375639915466, 0.011203138157725334, -0.018660660833120346, 0.021308548748493195, 0.06548886746168137, -0.125621497631073, -0.060855235904455185, 0.13358454406261444, -0.010936098173260689, 0.0428980253636837, 0.03545777127146721, -0.06002522259950638, 0.08413074910640717, -0.14090682566165924, 0.10356883704662323, 0.02754807099699974, 0.051139768213033676, 0.07075008004903793, -0.06334984302520752, 0.03645424172282219, -0.09221041947603226, 0.04122159630060196, 0.0905449315905571, -0.08292312920093536, 0.056114472448825836, -0.08398566395044327, -0.08679158985614777, 0.007385489530861378, -0.0487358458340168, 0.012733938172459602, 0.1508556455373764, 0.004858638625591993, 0.10785815864801407, -0.06472528725862503, -0.03222806006669998, 0.002513036597520113, -0.08038470894098282, -0.0022709232289344072, -0.056278154253959656, -0.03304586932063103, 0.07906737178564072, -0.0775621086359024, 0.016561612486839294, -0.03836575150489807, -0.17537468671798706, 0.23385684192180634, -0.019489172846078873, 0.08114602416753769, 0.10153434425592422, 0.09628435969352722, -0.1575324982404709, 0.14064569771289825, -0.09125761687755585, 0.037022609263658524, 0.07709939032793045, 0.05555090680718422, 0.1760634034872055, 0.15649965405464172, 0.09261623024940491, -0.022152651101350784, 0.04880039766430855, -0.04329901933670044, -0.0422104150056839, 0.09498197585344315, -0.08134468644857407, -0.049633756279945374, 0.054744333028793335, -0.1617182046175003, 0.2417043149471283, -0.0035058967769145966, -0.1846981942653656, -0.11452605575323105, -0.04425652325153351, -0.05647832900285721, -0.11342152208089828, -0.0881301686167717, -0.0005160419386811554, 0.12722261250019073, -0.076764777302742, 0.08428388088941574, 0.0066408393904566765, 0.019144047051668167, 0.15741781890392303, -0.012021992355585098, 0.09975829720497131, -0.1423082798719406, -0.08723105490207672, 0.06328526139259338, -0.1051938459277153, 0.07902823388576508, -0.04876131936907768, -0.08048056066036224, 0.16025102138519287, 0.01716718263924122, -0.007149130571633577, 0.00267613772302866, 0.05694315582513809, -0.15067291259765625, 0.10745036602020264, -0.03039296343922615, -0.0963338166475296, 0.1838057041168213, 0.003197891404852271, -0.07004726678133011, -0.048940133303403854, 0.1116330549120903, -0.17900332808494568, -0.0796050950884819, -0.10113736987113953, 0.12144101411104202, -0.030334215611219406, -0.057289425283670425, 0.03152596205472946, 0.12928147614002228, -0.05238007381558418, -0.02527129277586937, -0.06338173151016235, 0.06248529255390167, -0.13363216817378998, -0.14997263252735138, -0.15236851572990417, 0.06917022913694382, -0.01601344905793667, 0.032302092760801315, 0.09604378789663315, 0.056111980229616165, 0.04666641354560852, -0.003246576990932226, 0.06642262637615204, 0.0937814712524414, 0.06158331409096718, 0.012986117042601109, 0.19116900861263275, 0.03312673792243004, 0.1519133597612381, -0.06846105307340622, -0.05133092403411865, 0.1475474089384079, 0.012430156581103802, -0.1287282109260559, -0.12542101740837097, 0.10952302068471909, 0.14758779108524323, 0.13599035143852234], [0.14831094443798065, -0.010172400623559952, -0.04950834810733795, -0.016497069969773293, -0.0006532756378874183, 0.1360621601343155, -0.10197144746780396, 0.20415185391902924, -0.054037269204854965, 0.12629945576190948, 0.3534244894981384, 0.1242559626698494, 0.015024986118078232, -0.017112044617533684, -0.01014706864953041, 0.11091213673353195, 0.0029814662411808968, 0.1881757527589798, 0.06900883466005325, 0.11751574277877808, 0.16052691638469696, -0.00046711324830539525, -0.13113795220851898, -0.09033501148223877, 0.204127237200737, 0.1735319048166275, 0.2280479222536087, -0.046289023011922836, -0.04860555753111839, 0.24306488037109375, 0.2533196210861206, 0.0633915364742279, 0.10450077056884766, -0.05297228693962097, 0.017420727759599686, -0.10251477360725403, 0.1836303025484085, -0.12615756690502167, 0.026406213641166687, -0.16068504750728607, 0.12464694678783417, -0.03371874988079071, 0.006351844407618046, -0.010148879140615463, 0.15742649137973785, -0.183580219745636, 0.1546008139848709, 0.0030983486212790012, 0.07529136538505554, 0.21676261723041534, 0.022675538435578346, 0.23201905190944672, -0.07891718298196793, -0.08899933099746704, 0.072626493871212, 0.00594345573335886, -0.07681062817573547, -0.04769148677587509, 0.007814308628439903, -0.09870331734418869, 0.08785529434680939, 0.17990435659885406, -0.10514462739229202, -0.167958065867424, -0.1262330561876297, -0.00033235104638151824, 0.26303672790527344, -0.11329855769872665, 0.2556663453578949, 0.24324141442775726, -0.05218471214175224, 0.08335741609334946, -0.08560009300708771, 0.06429882347583771, 0.11836528033018112, -0.034479644149541855, -0.03292470797896385, 0.12102991342544556, 0.018971916288137436, -0.25769609212875366, 0.029112819582223892, 0.17030979692935944, -0.005362971220165491, -0.06862933933734894, 0.025874264538288116, 0.06276658177375793, 0.05774599313735962, -0.10670910030603409, 0.048207152634859085, 0.1547357439994812, -0.1284460425376892, -0.09846612811088562, -0.10489175468683243, -0.04468991979956627, 0.1254013031721115, 0.004495169967412949, 0.11459870636463165, 0.04749991372227669, -0.15182028710842133, 0.05504323169589043, -0.09646620601415634, 0.3382245898246765, -0.14709743857383728, 0.03312840685248375, 0.09541147947311401, -0.009920838288962841, 0.053690485656261444, 0.04664947837591171, -0.04625210165977478, 0.07571492344141006, -0.17369957268238068, 0.027159929275512695, 0.047995660454034805, 0.07552434504032135, -0.01997804455459118, -0.0776928961277008, -0.003488919697701931, -0.1720018982887268, -0.08510912209749222, 0.049000468105077744, -0.15158016979694366, -0.08185166120529175, 0.10873307287693024, 0.12705445289611816, -0.037412337958812714, -0.1137562096118927, -0.10269486904144287, -0.03247887268662453, 0.1722009927034378, 0.10998321324586868, -0.22553101181983948, 0.167831689119339, 0.12052588164806366, 0.018977798521518707, -0.007964499294757843, 0.14176838099956512, -0.12175964564085007, -0.025958847254514694, -0.12846364080905914, 0.1933397501707077, 0.045397017151117325, -0.06772339344024658, 0.13792921602725983, 0.18980129063129425, 0.2086990922689438, 0.03933863714337349, -0.09384151548147202, 0.3078388571739197, -0.08339836448431015, 0.0015069333603605628, -0.004997661802917719, 0.1255001425743103, 0.1481209099292755, 0.14174237847328186, -0.003915826790034771, -0.2721051275730133, -0.05517003685235977, 0.06558838486671448, 0.20454275608062744, 0.030358826741576195, -0.13675275444984436, 0.08511713892221451, 0.0961870476603508, -0.08519403636455536, -0.1809781938791275, 0.007837111130356789, 0.12841404974460602, -0.1672794222831726, 0.08396955579519272, 0.16741153597831726, -0.05646064132452011, -0.010481560602784157, 0.27794933319091797, -0.09419506043195724, -0.08441891521215439, 0.1660127490758896, 0.02857350930571556, -0.011366823688149452, 0.07231511920690536, -0.16800488531589508, -0.16003374755382538, 0.042235516011714935, -0.2629951536655426, 0.052103396505117416, 0.09807345271110535, -0.08564447611570358, 0.3413981795310974, -0.03404635563492775, -0.041737254709005356, 0.1286603808403015, 0.051273979246616364, -0.06372465938329697, -0.10229644924402237, -0.04831739887595177, 0.07557668536901474, -0.039393965154886246, 0.06151688098907471, -0.1046413853764534, -0.24686889350414276, -0.03053918480873108, 0.010048441588878632, -0.12533286213874817, -0.04208572953939438, 0.06701560318470001, 0.07038164138793945, -0.01329378318041563, 0.2106042355298996, 0.02277335338294506, -0.11506832391023636, 0.12472517788410187, -0.05735960975289345, -0.1637202799320221, -0.010663307271897793, -0.09820854663848877, -0.4068034887313843, 0.007922428660094738, -0.05132594332098961, 0.24685929715633392, -0.3058389127254486, -0.187581405043602, -0.07611623406410217, -0.08940865099430084, -0.07218296080827713, 0.0875164344906807, 0.07870718836784363, -0.20406976342201233, -0.06673666089773178, -0.19699855148792267, 0.14022238552570343, 0.0336005799472332, 0.016543131321668625, 0.02889014035463333, -0.015880342572927475, -0.09960219264030457, 0.15808624029159546, 0.1123296394944191, -0.12786228954792023, -0.05835007131099701, -0.10697055608034134, -0.11848792433738708, -0.04737073555588722, 0.10414864867925644, 0.10027427226305008, -0.0740041732788086, -0.0883110761642456, -0.25153806805610657, -0.043387409299612045, 0.20182034373283386, 0.013293459080159664, 0.11996695399284363, -0.1941276490688324, -0.20352576673030853, 0.18321460485458374, -0.07763566076755524, 0.05289934203028679, 0.051847051829099655], [0.08496654033660889, 0.10939545184373856, 0.028495384380221367, -0.002383131766691804, -0.15859095752239227, -0.010481552220880985, -0.026886500418186188, 0.04602692648768425, -0.025764718651771545, -0.12157290428876877, 0.08994664996862411, 0.12682022154331207, -0.011380601674318314, 0.002794269472360611, -0.08702968060970306, -0.038385745137929916, -0.0566600039601326, 0.01552945002913475, 0.27083832025527954, -0.17916011810302734, -0.009989279322326183, 0.20967301726341248, -0.07101651281118393, 0.004842114169150591, 